{"learner":{"attributes":{"best_iteration":"99","best_ntree_limit":"100","scikit_learn":"{\"n_estimators\": 100, \"objective\": \"reg:squarederror\", \"max_depth\": null, \"max_leaves\": null, \"max_bin\": null, \"grow_policy\": null, \"learning_rate\": null, \"verbosity\": null, \"booster\": null, \"tree_method\": null, \"gamma\": null, \"min_child_weight\": null, \"max_delta_step\": null, \"subsample\": null, \"sampling_method\": null, \"colsample_bytree\": null, \"colsample_bylevel\": null, \"colsample_bynode\": null, \"reg_alpha\": null, \"reg_lambda\": null, \"scale_pos_weight\": null, \"base_score\": null, \"missing\": NaN, \"num_parallel_tree\": null, \"random_state\": null, \"n_jobs\": null, \"monotone_constraints\": null, \"interaction_constraints\": null, \"importance_type\": null, \"gpu_id\": null, \"validate_parameters\": null, \"predictor\": null, \"enable_categorical\": false, \"feature_types\": null, \"max_cat_to_onehot\": null, \"max_cat_threshold\": null, \"eval_metric\": null, \"early_stopping_rounds\": null, \"callbacks\": null, \"_estimator_type\": \"regressor\"}"},"feature_names":[],"feature_types":[],"gradient_booster":{"model":{"gbtree_model_param":{"num_parallel_tree":"1","num_trees":"100","size_leaf_vector":"0"},"tree_info":[0,0,0,0,0,0,0,0,0,0,0,0,0,0,0,0,0,0,0,0,0,0,0,0,0,0,0,0,0,0,0,0,0,0,0,0,0,0,0,0,0,0,0,0,0,0,0,0,0,0,0,0,0,0,0,0,0,0,0,0,0,0,0,0,0,0,0,0,0,0,0,0,0,0,0,0,0,0,0,0,0,0,0,0,0,0,0,0,0,0,0,0,0,0,0,0,0,0,0,0],"trees":[{"base_weights":[3.4698907E-1,1.0748163E0,1.3272883E-1,1.2158052E0,6.5782475E-1,7.384287E-1,7.56861E-2,1.327295E0,1.0678874E0,9.7808844E-1,4.7840467E-1,5.0903034E-1,1.0072547E0,3.8020834E-1,2.092618E-2,1.3394974E0,1.0653377E0,7.360579E-1,1.1609559E0,8.3322495E-1,1.1731234E0,8.557913E-1,3.6709586E-1,8.6517596E-1,4.4439688E-1,1.0568455E0,7.7533174E-1,7.592913E-1,3.112156E-1,2.9483902E-1,-6.1650246E-2,1.4484631E0,1.3130947E0,3.4836617E-1,1.0866234E0,9.567233E-1,1.7675175E-1,1.2919604E0,1.0296041E0,6.12953E-1,8.978465E-1,1.2314799E0,8.043729E-1,8.9000136E-1,5.1675165E-1,4.248462E-1,2.3595311E-1,-1.77832E-1,8.855233E-1,5.545834E-1,1.4975448E-1,9.8411256E-1,1.1596433E0,8.2303464E-1,3.9236563E-1,3.341018E-1,8.003277E-1,4.2200372E-1,2.3539051E-1,2.2713588E-1,6.309187E-1,3.1191474E-1,-1.06698476E-1,1.2123693E0,1.3769864E0,2.900312E-1,1.0035281E0,8.1668335E-1,-9.734448E-2,1.3344376E0,1.0995213E0,1.1704012E0,9.732185E-1,1.3486405E-1,6.3861907E-1,8.110775E-1,1.0045569E0,5.677295E-1,3.8450518E-1,1.2790631E-2,2.8096467E-1,9.048035E-1,3.893994E-1,7.757835E-1,4.4199893E-1,-1.8116207E-1,3.547402E-1,1.0057613E0,7.591276E-1,6.256912E-1,-2.7008869E-2,8.758445E-1,6.792842E-1,3.8843602E-1,4.973763E-1,7.119985E-1,2.0684873E-1,4.0818173E-1,1.5150136E-1,7.3668617E-1,4.1581988E-1,3.951441E-2,3.7390086E-1,-1.3819003E-1,1.4674278E-1],"categories":[],"categories_nodes":[],"categories_segments":[],"categories_sizes":[],"default_left":[1,1,1,1,1,1,1,1,1,1,1,1,1,1,1,1,1,1,1,1,1,1,1,1,1,1,1,1,1,1,1,0,1,0,0,1,1,1,1,1,1,0,0,0,0,1,1,0,1,1,1,1,0,0,0,1,1,1,1,1,1,1,1,0,0,0,0,0,0,0,0,0,0,0,0,0,0,0,0,0,0,0,0,0,0,0,0,0,0,0,0,0,0,0,0,0,0,0,0,0,0,0,0,0,0],"id":0,"left_children":[1,3,5,7,9,11,13,15,17,19,21,23,25,27,29,31,33,35,37,39,41,43,45,47,49,51,53,55,57,59,61,-1,63,-1,-1,65,67,69,71,73,75,-1,-1,-1,-1,77,79,-1,81,83,85,87,-1,-1,-1,89,91,93,95,97,99,101,103,-1,-1,-1,-1,-1,-1,-1,-1,-1,-1,-1,-1,-1,-1,-1,-1,-1,-1,-1,-1,-1,-1,-1,-1,-1,-1,-1,-1,-1,-1,-1,-1,-1,-1,-1,-1,-1,-1,-1,-1,-1,-1],"loss_changes":[1.7470588E3,1.49E2,2.9905017E2,2.996582E1,3.6652344E1,4.5430145E1,1.3194617E2,2.0284424E0,2.4562012E1,5.549057E0,1.7160538E1,8.9151535E0,3.1140137E0,3.1305374E1,1.5174469E2,1.0585938E0,4.3030548E-1,2.2416664E1,9.699951E0,1.3855286E0,1.0752563E0,6.3035583E-1,2.3460083E0,1.4520416E0,1.1085129E1,9.447937E-1,8.462601E-1,2.9605408E0,8.486E0,3.5215866E1,8.6783905E1,0E0,3.7298584E0,0E0,0E0,3.7967377E0,9.375851E0,1.1240234E0,1.4411011E0,3.310747E-1,1.3891602E-1,0E0,0E0,0E0,0E0,1.0670929E0,1.0109406E0,0E0,2.2159576E-1,5.883026E0,6.508416E0,6.451416E-2,0E0,0E0,0E0,1.9122281E0,9.40712E-1,8.542557E-1,8.137096E0,1.7670998E1,5.608795E0,9.356419E0,3.6742043E1,0E0,0E0,0E0,0E0,0E0,0E0,0E0,0E0,0E0,0E0,0E0,0E0,0E0,0E0,0E0,0E0,0E0,0E0,0E0,0E0,0E0,0E0,0E0,0E0,0E0,0E0,0E0,0E0,0E0,0E0,0E0,0E0,0E0,0E0,0E0,0E0,0E0,0E0,0E0,0E0,0E0,0E0],"parents":[2147483647,0,0,1,1,2,2,3,3,4,4,5,5,6,6,7,7,8,8,9,9,10,10,11,11,12,12,13,13,14,14,15,15,16,16,17,17,18,18,19,19,20,20,21,21,22,22,23,23,24,24,25,25,26,26,27,27,28,28,29,29,30,30,32,32,35,35,36,36,37,37,38,38,39,39,40,40,45,45,46,46,48,48,49,49,50,50,51,51,55,55,56,56,57,57,58,58,59,59,60,60,61,61,62,62],"right_children":[2,4,6,8,10,12,14,16,18,20,22,24,26,28,30,32,34,36,38,40,42,44,46,48,50,52,54,56,58,60,62,-1,64,-1,-1,66,68,70,72,74,76,-1,-1,-1,-1,78,80,-1,82,84,86,88,-1,-1,-1,90,92,94,96,98,100,102,104,-1,-1,-1,-1,-1,-1,-1,-1,-1,-1,-1,-1,-1,-1,-1,-1,-1,-1,-1,-1,-1,-1,-1,-1,-1,-1,-1,-1,-1,-1,-1,-1,-1,-1,-1,-1,-1,-1,-1,-1,-1,-1],"split_conditions":[7.902566E-1,8.130388E-1,8.193923E-1,7.40568E-1,9.9826145E-1,4.7960353E-1,8.5790706E-1,4.7772157E-1,4.3106735E-1,4.923945E-1,3.6176318E-1,4.4534153E-1,9.0176487E-1,8.3899224E-1,6.580512E-1,2.7535033E-1,-6.6141105E-8,6.9963443E-1,9.602025E-2,3.624425E-1,1.4616543E-1,1.0087378E0,7.6661044E-1,1.6092962E-1,9.092875E-1,5.391157E-1,9.9894726E-1,5.0280476E-1,5.7635E-1,9.4458425E-1,6.6431984E-2,4.3453893E-1,9.151805E-1,1.0450985E-1,3.2598704E-1,7.522968E-1,9.9584544E-1,7.254796E-1,2.031636E-1,8.172771E-4,5.212647E-1,3.6944398E-1,2.4131188E-1,2.670004E-1,1.550255E-1,4.2580843E-1,8.424655E-1,-5.3349603E-2,4.844032E-8,5.521415E-1,1.4506471E-1,5.627301E-1,3.47893E-1,2.4691041E-1,1.177097E-1,7.910287E-1,8.037555E-1,9.998467E-1,5.005199E-1,4.663577E-1,4.2697796E-1,1.4682423E-2,6.54762E-1,3.6371082E-1,4.1309592E-1,8.700936E-2,3.0105844E-1,2.4500501E-1,-2.9203346E-2,4.003313E-1,3.298564E-1,3.5112038E-1,2.9196557E-1,4.0459216E-2,1.9158573E-1,2.4332325E-1,3.0136707E-1,1.7031884E-1,1.1535156E-1,3.8371894E-3,8.42894E-2,2.7144107E-1,1.1681983E-1,2.3273505E-1,1.3259968E-1,-5.4348625E-2,1.0642207E-1,3.017284E-1,2.2773829E-1,1.8770736E-1,-8.102661E-3,2.6275337E-1,2.0378527E-1,1.1653081E-1,1.492129E-1,2.1359956E-1,6.205462E-2,1.22454524E-1,4.5450408E-2,2.2100586E-1,1.2474597E-1,1.1854324E-2,1.12170264E-1,-4.1457012E-2,4.4022836E-2],"split_indices":[63,60,62,62,96,58,94,91,59,59,91,91,63,61,93,94,6,61,77,80,79,62,63,52,96,58,96,90,98,98,49,0,98,0,0,64,96,63,91,66,58,0,0,0,0,91,60,0,3,91,75,91,0,0,0,94,96,95,91,95,91,85,90,0,0,0,0,0,0,0,0,0,0,0,0,0,0,0,0,0,0,0,0,0,0,0,0,0,0,0,0,0,0,0,0,0,0,0,0,0,0,0,0,0,0],"split_type":[0,0,0,0,0,0,0,0,0,0,0,0,0,0,0,0,0,0,0,0,0,0,0,0,0,0,0,0,0,0,0,0,0,0,0,0,0,0,0,0,0,0,0,0,0,0,0,0,0,0,0,0,0,0,0,0,0,0,0,0,0,0,0,0,0,0,0,0,0,0,0,0,0,0,0,0,0,0,0,0,0,0,0,0,0,0,0,0,0,0,0,0,0,0,0,0,0,0,0,0,0,0,0,0,0],"sum_hessian":[1.1203E4,2.547E3,8.656E3,1.902E3,6.45E2,7.44E2,7.912E3,1.08E3,8.22E2,2.3E2,4.15E2,4.03E2,3.41E2,1.205E3,6.707E3,1.028E3,5.2E1,1.82E2,6.4E2,1.35E2,9.5E1,9.3E1,3.22E2,6E1,3.43E2,2.78E2,6.3E1,1.84E2,1.021E3,1.553E3,5.154E3,1.9E2,8.38E2,2E0,5E1,1.3E2,5.2E1,3.16E2,3.24E2,3.3E1,1.02E2,8E1,1.5E1,8.3E1,1E1,2.22E2,1E2,1E0,5.9E1,2.49E2,9.4E1,1.69E2,1.09E2,5.5E1,8E0,1.7E1,1.67E2,4.13E2,6.08E2,1.294E3,2.59E2,5.54E2,4.6E3,3.33E2,5.05E2,9E0,1.21E2,1.5E1,3.7E1,2.54E2,6.2E1,8.7E1,2.37E2,2E0,3.1E1,6.1E1,4.1E1,4.6E1,1.76E2,1.7E1,8.3E1,5.6E1,3E0,8.2E1,1.67E2,3.6E1,5.8E1,1.51E2,1.8E1,9E0,8E0,9.9E1,6.8E1,2.9E2,1.23E2,3.3E1,5.75E2,3.8E2,9.14E2,1.72E2,8.7E1,1.03E2,4.51E2,4.092E3,5.08E2],"tree_param":{"num_deleted":"0","num_feature":"99","num_nodes":"105","size_leaf_vector":"0"}},{"base_weights":[2.4375135E-1,7.503641E-1,9.179801E-2,8.7624E-1,5.137228E-1,5.3898984E-1,5.4164313E-2,1.3992655E-1,8.8859034E-1,7.6068825E-1,3.6027604E-1,3.4484884E-1,6.813046E-1,2.5840878E-1,1.0255648E-2,-3.559999E-1,4.1967732E-1,9.5257753E-1,8.1725097E-1,6.5605795E-1,9.480973E-1,6.1057657E-1,2.2268747E-1,6.2902534E-1,2.9723945E-1,7.20029E-1,4.2514363E-1,5.924915E-1,2.17175E-1,1.9731398E-1,-5.195961E-2,-3.7648332E-1,-7.558286E-2,2.6382563E-1,6.009952E-1,9.894063E-1,9.0862995E-1,8.233627E-1,-3.081863E-1,8.422927E-1,6.0973054E-1,6.44922E-1,3.978894E-1,-2.1832886E-1,2.4646771E-1,3.814272E-1,1.0390595E-1,7.5577134E-1,5.8699846E-1,4.8975864E-1,2.5950253E-1,5.4246175E-1,7.3093873E-1,4.8510247E-1,1.9653803E-1,4.8030293E-1,1.4341484E-1,2.7195117E-1,-8.0885366E-2,3.0154616E-1,1.1299798E-1,9.832914E-1,8.370348E-1,9.0757394E-1,7.460792E-1,-6.747553E-2,-3.514951E-1,8.5169446E-1,2.284104E-1,4.3088138E-1,6.40612E-1,6.9442654E-1,5.884126E-1,-5.2476E-2,4.319325E-1,1.9587348E-1,-3.4184104E-1,1.2570462E-1,2.9289505E-1,4.99725E-1,2.9034472E-1,2.8322533E-1,-1.9198537E-2,7.3060495E-1,9.3730074E-1,2.761737E-1,6.052549E-1,2.665826E-1,5.162992E-1,3.0402637E-1,3.8793445E-2,2.7975634E-1,5.783522E-1,5.239093E-1,2.5872838E-1,4.3852624E-2,2.5448853E-1,5.3015953E-1,2.0771351E-1,-5.423801E-2,1.9657385E-1,4.8443028E-1,2.4048264E-1,-1.10665664E-1,1.7060958E-1],"categories":[],"categories_nodes":[],"categories_segments":[],"categories_sizes":[],"default_left":[1,1,1,1,1,1,1,1,1,1,1,1,1,1,1,1,1,1,1,1,0,1,1,0,1,1,1,1,1,1,1,0,0,1,0,0,1,1,1,1,1,1,1,1,1,1,1,1,1,1,1,1,0,1,1,1,1,1,1,0,0,0,0,0,0,0,0,0,0,0,0,0,0,0,0,0,0,0,0,0,0,0,0,0,0,0,0,0,0,0,0,0,0,0,0,0,0,0,0,0,0,0,0,0,0],"id":1,"left_children":[1,3,5,7,9,11,13,15,17,19,21,23,25,27,29,31,33,35,37,39,-1,41,43,-1,45,47,49,51,53,55,57,-1,-1,59,-1,-1,61,63,65,67,69,71,73,75,77,79,81,83,85,87,89,91,-1,93,95,97,99,101,103,-1,-1,-1,-1,-1,-1,-1,-1,-1,-1,-1,-1,-1,-1,-1,-1,-1,-1,-1,-1,-1,-1,-1,-1,-1,-1,-1,-1,-1,-1,-1,-1,-1,-1,-1,-1,-1,-1,-1,-1,-1,-1,-1,-1,-1,-1],"loss_changes":[8.6243176E2,7.6550415E1,1.450409E2,1.5207642E1,3.3832367E1,1.8248947E1,7.13117E1,4.1727433E0,6.789917E0,6.1233826E0,1.9046272E1,3.6689262E0,3.51297E0,1.9253448E1,7.619183E1,3.4727097E-2,3.783574E-1,5.059204E-1,5.69458E0,1.4190598E0,0E0,1.1824417E0,3.8397884E0,0E0,3.9643402E0,1.1397095E0,4.401598E-1,6.70166E-1,6.838291E0,2.4854298E1,4.6053684E1,0E0,0E0,3.419751E-2,0E0,0E0,1.3578491E0,4.444763E0,2.8407127E-2,4.7870636E-2,7.3470306E-1,6.137085E-2,4.8262072E-1,1.0389792E0,1.886282E0,1.6974087E0,1.6831393E0,4.9842834E-1,2.584362E-1,8.152294E-2,1.5526152E-1,9.4135284E-1,0E0,6.4630127E-1,1.0305836E1,3.436966E0,1.4447319E1,2.5781212E0,3.3804436E1,0E0,0E0,0E0,0E0,0E0,0E0,0E0,0E0,0E0,0E0,0E0,0E0,0E0,0E0,0E0,0E0,0E0,0E0,0E0,0E0,0E0,0E0,0E0,0E0,0E0,0E0,0E0,0E0,0E0,0E0,0E0,0E0,0E0,0E0,0E0,0E0,0E0,0E0,0E0,0E0,0E0,0E0,0E0,0E0,0E0,0E0],"parents":[2147483647,0,0,1,1,2,2,3,3,4,4,5,5,6,6,7,7,8,8,9,9,10,10,11,11,12,12,13,13,14,14,15,15,16,16,17,17,18,18,19,19,21,21,22,22,24,24,25,25,26,26,27,27,28,28,29,29,30,30,33,33,36,36,37,37,38,38,39,39,40,40,41,41,42,42,43,43,44,44,45,45,46,46,47,47,48,48,49,49,50,50,51,51,53,53,54,54,55,55,56,56,57,57,58,58],"right_children":[2,4,6,8,10,12,14,16,18,20,22,24,26,28,30,32,34,36,38,40,-1,42,44,-1,46,48,50,52,54,56,58,-1,-1,60,-1,-1,62,64,66,68,70,72,74,76,78,80,82,84,86,88,90,92,-1,94,96,98,100,102,104,-1,-1,-1,-1,-1,-1,-1,-1,-1,-1,-1,-1,-1,-1,-1,-1,-1,-1,-1,-1,-1,-1,-1,-1,-1,-1,-1,-1,-1,-1,-1,-1,-1,-1,-1,-1,-1,-1,-1,-1,-1,-1,-1,-1,-1,-1],"split_conditions":[7.923681E-1,8.3046395E-1,8.1298673E-1,1.906824E-1,9.9619186E-1,4.6540183E-1,8.789338E-1,2.2142068E-1,6.581619E-1,5.403391E-1,3.924971E-1,7.259436E-1,8.6897266E-1,8.764076E-1,6.6376317E-1,8.6898835E-9,9.2902005E-2,6.241349E-1,5.7279146E-1,6.1864054E-1,2.844292E-1,8.4416986E-1,7.979833E-1,1.887076E-1,8.92519E-1,5.239081E-1,9.9834985E-1,5.0368196E-1,4.9903324E-1,9.999912E-1,5.8370322E-2,-1.12945E-1,-2.2674859E-2,1.03697404E-1,1.8029857E-1,2.968219E-1,3.7202466E-1,5.9284556E-1,-5.745758E-9,2.3911635E-8,3.036257E-1,2.46573E-1,4.3264702E-1,-2.3753368E-9,8.98501E-1,5.6794393E-1,3.4169525E-1,9.8254037E-1,-2.4049204E-8,1.842907E-2,7.476379E-2,5.1597595E-1,2.1928163E-1,1.8126298E-9,9.1214645E-1,1.2101336E-1,1.5526611E-2,9.9917144E-1,1.0801914E0,9.046385E-2,3.3899397E-2,2.9498744E-1,2.5111046E-1,2.722722E-1,2.2382377E-1,-2.024266E-2,-1.0544853E-1,2.5550836E-1,6.8523124E-2,1.2926441E-1,1.9218361E-1,2.0832796E-1,1.7652377E-1,-1.5742801E-2,1.2957975E-1,5.8762047E-2,-1.0255232E-1,3.7711386E-2,8.786852E-2,1.4991751E-1,8.710342E-2,8.49676E-2,-5.7595614E-3,2.191815E-1,2.8119025E-1,8.285212E-2,1.8157648E-1,7.9974785E-2,1.5488976E-1,9.1207914E-2,1.1638034E-2,8.39269E-2,1.7350566E-1,1.5717278E-1,7.761852E-2,1.3155787E-2,7.634656E-2,1.5904787E-1,6.2314056E-2,-1.6271403E-2,5.8972158E-2,1.4532909E-1,7.21448E-2,-3.31997E-2,5.1182877E-2],"split_indices":[63,62,62,52,96,58,94,66,60,59,91,93,61,63,93,2,48,61,91,61,0,65,60,0,96,91,96,59,91,96,49,0,0,53,0,0,94,61,4,12,78,91,59,10,98,91,47,98,16,70,49,90,0,23,95,79,83,96,64,0,0,0,0,0,0,0,0,0,0,0,0,0,0,0,0,0,0,0,0,0,0,0,0,0,0,0,0,0,0,0,0,0,0,0,0,0,0,0,0,0,0,0,0,0,0],"split_type":[0,0,0,0,0,0,0,0,0,0,0,0,0,0,0,0,0,0,0,0,0,0,0,0,0,0,0,0,0,0,0,0,0,0,0,0,0,0,0,0,0,0,0,0,0,0,0,0,0,0,0,0,0,0,0,0,0,0,0,0,0,0,0,0,0,0,0,0,0,0,0,0,0,0,0,0,0,0,0,0,0,0,0,0,0,0,0,0,0,0,0,0,0,0,0,0,0,0,0,0,0,0,0,0,0],"sum_hessian":[1.1203E4,2.584E3,8.619E3,1.685E3,8.99E2,6.68E2,7.951E3,2.8E1,1.657E3,3.43E2,5.56E2,2.84E2,3.84E2,1.406E3,6.545E3,1E1,1.8E1,8.67E2,7.9E2,2.23E2,1.2E2,1.96E2,3.6E2,3.9E1,2.45E2,3.32E2,5.2E1,1.53E2,1.253E3,1.633E3,4.912E3,9E0,1E0,1.1E1,7E0,4.6E2,4.07E2,7.86E2,4E0,4.1E1,1.82E2,1.67E2,2.9E1,1.8E1,3.42E2,1.7E2,7.5E1,2.58E2,7.4E1,3.6E1,1.6E1,1.16E2,3.7E1,8.8E1,1.165E3,2.6E2,1.373E3,4.02E2,4.51E3,8E0,3E0,1.93E2,2.14E2,3.71E2,4.15E2,1E0,3E0,4E1,1E0,2.9E1,1.53E2,8.3E1,8.4E1,2E0,2.7E1,4E0,1.4E1,9.6E1,2.46E2,7.2E1,9.8E1,3E1,4.5E1,2.31E2,2.7E1,5E0,6.9E1,5E0,3.1E1,1.3E1,3E0,1.5E1,1.01E2,7.4E1,1.4E1,3.21E2,8.44E2,2.19E2,4.1E1,2.91E2,1.082E3,5E1,3.52E2,4.033E3,4.77E2],"tree_param":{"num_deleted":"0","num_feature":"99","num_nodes":"105","size_leaf_vector":"0"}},{"base_weights":[1.7114367E-1,5.497063E-1,7.076699E-2,6.118501E-1,3.4925964E-1,4.5952705E-1,4.5121834E-2,6.6962093E-1,5.604624E-1,2.3247728E-1,4.7119814E-1,3.5243222E-1,5.515296E-1,-2.0287089E-1,6.717922E-2,7.5456077E-1,6.540941E-1,6.2529665E-1,4.7254077E-1,3.0818543E-1,1.5078242E-1,5.449048E-1,3.4877983E-1,4.8664355E-1,3.0610085E-1,5.290195E-1,7.623446E-1,-2.4549837E-1,3.0524793E-1,1.63072E-1,4.6610963E-3,7.249614E-1,6.248331E-1,1.17440715E-1,6.335895E-1,5.6365186E-1,4.0129954E-1,2.7422124E-1,4.2752695E-1,2.5005704E-1,7.3200725E-2,4.9900067E-1,6.839469E-1,2.4532081E-1,4.1938433E-1,5.034365E-1,2.7798146E-1,4.3021584E-1,2.4959059E-1,5.803775E-1,4.523031E-1,2.6275983E-1,-2.7508274E-1,3.9804995E-1,-1.0916013E-2,2.8320023E-1,1.1671313E-1,1.6650489E-1,-4.710067E-2,6.8746597E-1,5.6291765E-1,1.6598943E-1,-5.1169414E-2,5.9275013E-1,7.168083E-1,6.199404E-1,5.0364363E-1,-1.9462842E-1,4.1255867E-1,2.9872257E-1,2.3737876E-1,3.1205586E-1,1.5459497E-1,1.0877293E-1,-1.0226632E-1,4.588731E-1,6.350846E-1,1.1491803E-1,2.7929538E-1,4.4672617E-1,2.11773E-1,4.499359E-1,2.1944727E-1,2.8830653E-1,1.629666E-1,6.438066E-1,5.447209E-1,5.131623E-1,3.8457647E-1,3.2763135E-1,2.8644353E-3,-3.0928418E-1,-9.917468E-2,-3.7379265E-2,4.213381E-1,5.7661593E-2,-4.7801793E-2,2.2300242E-1,4.5128775E-1,-2.9792627E-2,1.5933485E-1,3.4749892E-1,1.3901758E-1,-9.512143E-2,1.3013133E-1],"categories":[],"categories_nodes":[],"categories_segments":[],"categories_sizes":[],"default_left":[1,1,1,1,1,1,1,1,1,1,1,1,1,1,1,0,1,1,1,1,1,1,1,1,1,1,0,1,1,1,1,0,1,1,1,1,1,1,0,1,1,1,0,1,1,0,0,1,1,1,1,1,1,1,1,1,1,1,1,0,0,0,0,0,0,0,0,0,0,0,0,0,0,0,0,0,0,0,0,0,0,0,0,0,0,0,0,0,0,0,0,0,0,0,0,0,0,0,0,0,0,0,0,0,0],"id":2,"left_children":[1,3,5,7,9,11,13,15,17,19,21,23,25,27,29,-1,31,33,35,37,39,41,43,45,47,49,-1,51,53,55,57,-1,59,61,63,65,67,69,-1,71,73,75,-1,77,79,-1,-1,81,83,85,87,89,91,93,95,97,99,101,103,-1,-1,-1,-1,-1,-1,-1,-1,-1,-1,-1,-1,-1,-1,-1,-1,-1,-1,-1,-1,-1,-1,-1,-1,-1,-1,-1,-1,-1,-1,-1,-1,-1,-1,-1,-1,-1,-1,-1,-1,-1,-1,-1,-1,-1,-1],"loss_changes":[4.257003E2,2.903418E1,8.828191E1,4.9417114E0,7.836525E0,5.2050705E0,4.5469913E1,6.116333E-1,5.142639E0,1.7286177E0,2.264225E0,1.442894E0,9.871292E-1,1.4781954E1,4.575336E1,0E0,1.0317383E0,2.2250977E0,2.4285736E0,4.8265553E-1,1.0599608E0,7.3099136E-1,6.6410637E-1,8.431339E-2,1.2462788E0,7.9341125E-1,0E0,9.500172E0,1.5594001E0,1.6740799E1,3.871944E1,0E0,1.6062775E0,9.035163E-2,1.4001465E0,2.8564072E-1,1.6436348E0,3.5607338E-2,0E0,3.1278825E-1,5.1046383E-1,4.184723E-1,0E0,1.672709E-1,2.516613E-1,0E0,0E0,1.4648914E-1,4.0576935E-1,4.3907166E-3,2.6428795E-1,5.8915496E-1,3.536995E0,4.3150377E-1,3.564033E-2,8.37867E0,1.3586161E1,5.523731E0,2.9817253E1,0E0,0E0,0E0,0E0,0E0,0E0,0E0,0E0,0E0,0E0,0E0,0E0,0E0,0E0,0E0,0E0,0E0,0E0,0E0,0E0,0E0,0E0,0E0,0E0,0E0,0E0,0E0,0E0,0E0,0E0,0E0,0E0,0E0,0E0,0E0,0E0,0E0,0E0,0E0,0E0,0E0,0E0,0E0,0E0,0E0,0E0],"parents":[2147483647,0,0,1,1,2,2,3,3,4,4,5,5,6,6,7,7,8,8,9,9,10,10,11,11,12,12,13,13,14,14,16,16,17,17,18,18,19,19,20,20,21,21,22,22,23,23,24,24,25,25,27,27,28,28,29,29,30,30,32,32,33,33,34,34,35,35,36,36,37,37,39,39,40,40,41,41,43,43,44,44,47,47,48,48,49,49,50,50,51,51,52,52,53,53,54,54,55,55,56,56,57,57,58,58],"right_children":[2,4,6,8,10,12,14,16,18,20,22,24,26,28,30,-1,32,34,36,38,40,42,44,46,48,50,-1,52,54,56,58,-1,60,62,64,66,68,70,-1,72,74,76,-1,78,80,-1,-1,82,84,86,88,90,92,94,96,98,100,102,104,-1,-1,-1,-1,-1,-1,-1,-1,-1,-1,-1,-1,-1,-1,-1,-1,-1,-1,-1,-1,-1,-1,-1,-1,-1,-1,-1,-1,-1,-1,-1,-1,-1,-1,-1,-1,-1,-1,-1,-1,-1,-1,-1,-1,-1,-1],"split_conditions":[7.760875E-1,8.130388E-1,7.7902365E-1,7.068435E-1,5.138481E-1,4.904225E-1,5.9191197E-2,5.1559493E-2,1.2056527E-1,9.6788764E-1,7.3604256E-1,4.8208892E-1,9.8804843E-1,3.4070683E-1,9.7340286E-2,2.2636823E-1,1.1493772E-1,2.976744E-3,2.4106532E-1,1.7184716E-1,6.796497E-1,5.5773294E-1,4.2813897E-1,5.972861E-1,4.7171766E-1,6.4463717E-1,2.287034E-1,5.3447038E-2,9.096534E-1,9.250451E-1,8.6459005E-1,2.1748842E-1,3.556081E-1,-2.0077888E-8,4.9128073E-1,6.0567284E-1,2.0309252E-1,9.664895E-1,1.282581E-1,7.5034297E-1,3.1705725E-1,5.49204E-1,2.0518409E-1,-1.1585417E-8,9.610069E-1,1.5103096E-1,8.339444E-2,5.091706E-8,8.7826324E-1,5.1120067E-1,3.7220448E-1,4.4547224E-9,3.6845356E-2,6.916419E-1,9.262824E-1,2.2303039E-1,1.474908E-2,8.967851E-1,1.0611126E0,2.062398E-1,1.688753E-1,4.979683E-2,-1.5350825E-2,1.7782505E-1,2.150425E-1,1.8598212E-1,1.510931E-1,-5.8388527E-2,1.2376761E-1,8.9616776E-2,7.121363E-2,9.361676E-2,4.6378493E-2,3.263188E-2,-3.0679896E-2,1.3766193E-1,1.905254E-1,3.4475412E-2,8.378862E-2,1.3401785E-1,6.35319E-2,1.3498078E-1,6.583419E-2,8.6491965E-2,4.888998E-2,1.9314198E-1,1.6341627E-1,1.539487E-1,1.1537295E-1,9.828941E-2,8.5933064E-4,-9.2785254E-2,-2.9752405E-2,-1.1213779E-2,1.2640144E-1,1.7298479E-2,-1.43405385E-2,6.690073E-2,1.3538633E-1,-8.937788E-3,4.780046E-2,1.0424968E-1,4.1705277E-2,-2.853643E-2,3.9039403E-2],"split_indices":[63,60,62,62,90,58,81,91,77,94,63,92,98,47,79,0,92,83,91,74,93,59,59,91,91,60,0,49,60,62,94,0,89,8,59,65,52,94,0,63,78,58,0,1,60,0,0,3,94,62,47,4,56,45,42,52,83,63,64,0,0,0,0,0,0,0,0,0,0,0,0,0,0,0,0,0,0,0,0,0,0,0,0,0,0,0,0,0,0,0,0,0,0,0,0,0,0,0,0,0,0,0,0,0,0],"split_type":[0,0,0,0,0,0,0,0,0,0,0,0,0,0,0,0,0,0,0,0,0,0,0,0,0,0,0,0,0,0,0,0,0,0,0,0,0,0,0,0,0,0,0,0,0,0,0,0,0,0,0,0,0,0,0,0,0,0,0,0,0,0,0,0,0,0,0,0,0,0,0,0,0,0,0,0,0,0,0,0,0,0,0,0,0,0,0,0,0,0,0,0,0,0,0,0,0,0,0,0,0,0,0,0,0],"sum_hessian":[1.1203E4,2.347E3,8.856E3,1.79E3,5.57E2,5.47E2,8.309E3,8.37E2,9.53E2,2.86E2,2.71E2,2.55E2,2.92E2,6.78E2,7.631E3,1.22E2,7.15E2,5.45E2,4.08E2,1.47E2,1.39E2,1.67E2,1.04E2,6.3E1,1.92E2,2.67E2,2.5E1,6.26E2,5.2E1,3.011E3,4.62E3,2.02E2,5.13E2,9E0,5.36E2,1.76E2,2.32E2,1.17E2,3E1,6E1,7.9E1,1.29E2,3.8E1,4.4E1,6E1,5.7E1,6E0,5.8E1,1.34E2,1.56E2,1.11E2,3.4E1,5.92E2,4E1,1.2E1,8.37E2,2.174E3,1.119E3,3.501E3,2.5E2,2.63E2,7E0,2E0,3.65E2,1.71E2,8.6E1,9E1,4E0,2.28E2,6.6E1,5.1E1,3.5E1,2.5E1,6.6E1,1.3E1,1.03E2,2.6E1,1E1,3.4E1,5.2E1,8E0,5.2E1,6E0,9.1E1,4.3E1,5E1,1.06E2,5.5E1,5.6E1,2.7E1,7E0,4.95E2,9.7E1,2E0,3.8E1,4E0,8E0,6.18E2,2.19E2,4.9E2,1.684E3,1.46E2,9.73E2,2.755E3,7.46E2],"tree_param":{"num_deleted":"0","num_feature":"99","num_nodes":"105","size_leaf_vector":"0"}},{"base_weights":[1.2023313E-1,3.550146E-1,3.8693033E-2,4.470793E-1,2.576554E-1,2.1072634E-1,1.2662433E-2,4.0107444E-2,4.5149064E-1,1.7243312E-1,3.8533363E-1,3.3161515E-1,1.5777907E-1,-1.388958E-2,1.946454E-1,1.6613474E-1,-1.6366509E-1,4.4002515E-1,5.66024E-1,3.1272605E-1,9.423294E-2,4.394472E-1,2.6111615E-1,3.9004892E-1,2.9581055E-1,1.1943831E-1,2.3134685E-1,-4.0371567E-2,1.302472E-1,-2.8200923E-2,2.6514217E-1,2.3039497E-1,7.4185394E-2,-2.1647587E-1,-2.1092078E-2,5.0244015E-1,4.1474319E-1,3.635141E-1,2.1946363E-1,4.287024E-2,2.5913718E-1,3.3708453E-1,4.794743E-1,1.6304083E-1,2.9965866E-1,3.1704378E-1,1.9135901E-1,6.234627E-2,1.8075517E-1,1.7177212E-1,2.8118396E-1,1.4775725E-1,-5.8348443E-2,-8.595548E-2,2.1270232E-1,-1.090087E-1,2.2521973E-1,1.5974681E-1,3.4306753E-1,6.458035E-2,2.5064182E-1,1.2703568E-2,8.394104E-2,-2.6048332E-2,-5.589783E-3,4.7345215E-1,5.3059256E-1,4.9734837E-1,3.6528683E-1,3.4044796E-1,4.7826064E-1,2.8241906E-1,1.5251797E-1,-1.4166357E-1,1.2082014E-1,2.9524484E-1,1.5372682E-1,3.3857784E-1,8.491713E-2,5.0170857E-1,3.9889574E-1,1.836488E-1,7.2695357E-3,3.0338612E-1,-7.754615E-2,2.7599466E-1,3.4493914E-1,4.929578E-2,3.6394915E-1,2.832889E-2,1.8697575E-1,5.5654906E-2,2.3237191E-1,2.0283273E-1,7.505314E-2,3.0192685E-1,1.7368947E-1,4.3486888E-3,1.65803E-1,-1.3975015E-1,-2.8884797E-3,1.7852037E-1,-3.1026518E-1,1.5660787E-1,3.498487E-1,-5.0921902E-2,-2.2848094E-1,8.9272745E-2,2.9071343E-1,3.530209E-2,2.1316653E-1,2.96806E-1,4.0481818E-1],"categories":[],"categories_nodes":[],"categories_segments":[],"categories_sizes":[],"default_left":[1,1,1,1,1,1,1,1,1,1,1,1,1,1,1,1,1,1,0,1,1,1,1,0,1,1,1,1,1,1,1,1,1,0,1,1,1,1,1,1,1,1,1,1,1,1,1,1,1,1,1,1,1,1,1,1,1,1,1,0,0,0,0,0,0,0,0,0,0,0,0,0,0,0,0,0,0,0,0,0,0,0,0,0,0,0,0,0,0,0,0,0,0,0,0,0,0,0,0,0,0,0,0,0,0,0,0,0,0,0,0,0,0],"id":3,"left_children":[1,3,5,7,9,11,13,15,17,19,21,23,25,27,29,31,33,35,-1,37,39,41,43,-1,45,47,49,51,53,55,57,59,61,-1,63,65,67,69,71,73,75,77,79,81,83,85,87,89,91,93,95,97,99,101,103,105,107,109,111,-1,-1,-1,-1,-1,-1,-1,-1,-1,-1,-1,-1,-1,-1,-1,-1,-1,-1,-1,-1,-1,-1,-1,-1,-1,-1,-1,-1,-1,-1,-1,-1,-1,-1,-1,-1,-1,-1,-1,-1,-1,-1,-1,-1,-1,-1,-1,-1,-1,-1,-1,-1,-1,-1],"loss_changes":[2.1447679E2,2.5770966E1,3.7241936E1,2.6443176E0,1.5232277E1,6.94368E0,3.4914005E1,4.637658E-1,1.6773682E0,9.240971E0,3.6629333E0,5.7922745E-1,2.1217003E0,2.407544E1,1.4460625E1,4.7903568E-2,4.813984E-2,1.9029236E0,0E0,1.3506794E0,4.5965304E0,1.4363098E0,6.050949E-1,0E0,4.050789E-1,1.7495847E0,7.236481E-1,1.802775E1,1.7470934E1,4.5707474E0,5.6860657E0,3.9568245E-3,2.5324225E-3,0E0,8.4895524E-5,5.971527E-2,3.7320862E0,3.5064888E-1,4.163165E-1,6.001023E0,4.4560242E-1,1.3799667E-2,2.979393E-1,1.6238141E-1,1.9646645E-1,1.02897644E-1,9.1376984E-1,1.1054697E0,1.5497265E0,3.4827924E-1,2.5972366E-1,1.2026596E0,2.19583E1,1.6132328E1,5.399658E0,1.1611843E0,4.5484543E-1,1.9801683E0,1.0253754E0,0E0,0E0,0E0,0E0,0E0,0E0,0E0,0E0,0E0,0E0,0E0,0E0,0E0,0E0,0E0,0E0,0E0,0E0,0E0,0E0,0E0,0E0,0E0,0E0,0E0,0E0,0E0,0E0,0E0,0E0,0E0,0E0,0E0,0E0,0E0,0E0,0E0,0E0,0E0,0E0,0E0,0E0,0E0,0E0,0E0,0E0,0E0,0E0,0E0,0E0,0E0,0E0,0E0,0E0],"parents":[2147483647,0,0,1,1,2,2,3,3,4,4,5,5,6,6,7,7,8,8,9,9,10,10,11,11,12,12,13,13,14,14,15,15,16,16,17,17,19,19,20,20,21,21,22,22,24,24,25,25,26,26,27,27,28,28,29,29,30,30,31,31,32,32,34,34,35,35,36,36,37,37,38,38,39,39,40,40,41,41,42,42,43,43,44,44,45,45,46,46,47,47,48,48,49,49,50,50,51,51,52,52,53,53,54,54,55,55,56,56,57,57,58,58],"right_children":[2,4,6,8,10,12,14,16,18,20,22,24,26,28,30,32,34,36,-1,38,40,42,44,-1,46,48,50,52,54,56,58,60,62,-1,64,66,68,70,72,74,76,78,80,82,84,86,88,90,92,94,96,98,100,102,104,106,108,110,112,-1,-1,-1,-1,-1,-1,-1,-1,-1,-1,-1,-1,-1,-1,-1,-1,-1,-1,-1,-1,-1,-1,-1,-1,-1,-1,-1,-1,-1,-1,-1,-1,-1,-1,-1,-1,-1,-1,-1,-1,-1,-1,-1,-1,-1,-1,-1,-1,-1,-1,-1,-1,-1,-1],"split_conditions":[8.0769104E-1,7.931949E-1,8.0652785E-1,1.8622142E-1,4.703311E-1,5.483639E-1,9.38949E-1,3.2048666E-1,9.894396E-1,4.167231E-1,1.0048022E0,6.185915E-1,9.994962E-1,6.4539975E-1,1.7933154E-2,5.582147E-9,1.2962164E-8,3.957528E-1,1.6980721E-1,6.997198E-1,4.7945225E-1,4.4053E-1,2.6459643E-1,1.17014684E-1,5.306396E-1,1.6221249E-1,3.147389E-5,5.2107763E-1,5.6383777E-1,1.4271653E-1,1.0029428E-1,-5.4009925E-9,1.6156783E-8,-6.494276E-2,2.6534476E-8,9.377712E-1,3.6267126E-1,5.339907E-1,8.429047E-1,8.1324625E-1,8.9813024E-1,3.0308705E-8,9.083926E-1,7.218734E-1,3.8889695E-8,8.068248E-1,4.664958E-1,6.201037E-1,3.8228583E-5,9.6967494E-1,1.0565565E0,1.717119E-2,2.5317512E-2,7.2108164E-2,7.526792E-1,1.0428935E0,4.7077715E-2,8.2350165E-2,9.5267314E-1,1.9374106E-2,7.519255E-2,3.8110705E-3,2.5182314E-2,-7.8145005E-3,-1.676935E-3,1.4203565E-1,1.5917778E-1,1.4920452E-1,1.0958605E-1,1.0213439E-1,1.434782E-1,8.472572E-2,4.5755394E-2,-4.2499073E-2,3.6246043E-2,8.8573456E-2,4.6118047E-2,1.01573355E-1,2.5475139E-2,1.5051258E-1,1.1966873E-1,5.509464E-2,2.1808608E-3,9.101584E-2,-2.3263846E-2,8.27984E-2,1.0348175E-1,1.4788735E-2,1.0918475E-1,8.498668E-3,5.6092728E-2,1.6696472E-2,6.971157E-2,6.084982E-2,2.2515943E-2,9.057806E-2,5.2106842E-2,1.3046067E-3,4.9740903E-2,-4.1925047E-2,-8.6654397E-4,5.355611E-2,-9.307956E-2,4.6982363E-2,1.0495461E-1,-1.5276571E-2,-6.854428E-2,2.6781825E-2,8.721403E-2,1.0590628E-2,6.3949965E-2,8.904181E-2,1.21445455E-1],"split_indices":[63,62,96,52,59,91,98,47,98,91,40,96,95,90,83,0,0,94,0,44,58,58,78,0,91,85,66,93,97,73,48,0,0,0,0,97,93,58,65,60,60,13,62,93,15,62,58,90,66,33,63,83,85,79,97,36,77,81,98,0,0,0,0,0,0,0,0,0,0,0,0,0,0,0,0,0,0,0,0,0,0,0,0,0,0,0,0,0,0,0,0,0,0,0,0,0,0,0,0,0,0,0,0,0,0,0,0,0,0,0,0,0,0],"split_type":[0,0,0,0,0,0,0,0,0,0,0,0,0,0,0,0,0,0,0,0,0,0,0,0,0,0,0,0,0,0,0,0,0,0,0,0,0,0,0,0,0,0,0,0,0,0,0,0,0,0,0,0,0,0,0,0,0,0,0,0,0,0,0,0,0,0,0,0,0,0,0,0,0,0,0,0,0,0,0,0,0,0,0,0,0,0,0,0,0,0,0,0,0,0,0,0,0,0,0,0,0,0,0,0,0,0,0,0,0,0,0,0,0],"sum_hessian":[1.1203E4,2.887E3,8.316E3,1.482E3,1.405E3,1.092E3,7.224E3,1.6E1,1.466E3,8.44E2,5.61E2,3.31E2,7.61E2,6.305E3,9.19E2,1E1,6E0,1.337E3,1.29E2,3.01E2,5.43E2,3.89E2,1.72E2,1.22E2,2.09E2,5.02E2,2.59E2,5.327E3,9.78E2,2.21E2,6.98E2,5E0,5E0,4E0,2E0,3.8E2,9.57E2,1.93E2,1.08E2,4.15E2,1.28E2,1.12E2,2.77E2,5E1,1.22E2,1.72E2,3.7E1,2.61E2,2.41E2,1.2E2,1.39E2,4.64E2,4.863E3,2.7E2,7.08E2,1.68E2,5.3E1,2.98E2,4E2,1E0,4E0,1E0,4E0,1E0,1E0,1.96E2,1.84E2,3.55E2,6.02E2,1.64E2,2.9E1,5.4E1,5.4E1,1.23E2,2.92E2,9.4E1,3.4E1,1.11E2,1E0,2.13E2,6.4E1,4.4E1,6E0,1.21E2,1E0,7.4E1,9.8E1,2.1E1,1.6E1,2.06E2,5.5E1,7.1E1,1.7E2,9E1,3E1,1.15E2,2.4E1,5.2E1,4.12E2,1.97E3,2.893E3,1.24E2,1.46E2,5.04E2,2.04E2,1.14E2,5.4E1,1.8E1,3.5E1,9E1,2.08E2,2.32E2,1.68E2],"tree_param":{"num_deleted":"0","num_feature":"99","num_nodes":"113","size_leaf_vector":"0"}},{"base_weights":[8.443506E-2,2.2307841E-1,1.1562653E-2,2.9248166E-1,1.4104803E-1,1.3439564E-1,-1.4138137E-2,1.7420526E-1,3.051133E-1,2.2409862E-1,3.6446765E-2,2.1989386E-1,8.462911E-2,-2.8779613E-2,1.2462685E-1,2.9690826E-1,1.2101715E-1,3.5752565E-1,2.8796738E-1,2.891881E-1,1.4980905E-1,-7.77947E-2,1.6611113E-1,2.4387331E-1,1.316941E-1,1.3361233E-1,-1.4699124E-1,-4.721114E-2,1.0799084E-1,1.1755956E-1,3.664014E-1,2.4413677E-1,3.5855693E-1,1.4329681E-1,-1.1451603E-1,3.445159E-1,4.0875432E-1,2.623576E-1,3.573388E-1,2.64034E-1,3.934526E-1,1.10027865E-1,2.3806046E-1,-1.248196E-1,1.577694E-1,1.11388505E-1,3.3146033E-1,1.5281922E-1,2.8290933E-1,2.7236262E-1,9.6211396E-2,9.66044E-2,1.9917206E-1,-2.2074662E-1,-2.0364413E-2,-3.0418688E-2,-2.0196347E-1,3.5541588E-1,6.366098E-2,1.0984524E-1,2.61586E-1,2.5059894E-1,8.980215E-3,1.1814667E-1,2.0962298E-1,-2.0342503E-1,1.3638549E-1,3.541004E-1,3.0294836E-1,3.5327086E-1,4.476307E-1,2.64233E-1,-1.8094762E-1,3.4124362E-1,4.319798E-1,3.1412438E-1,2.1957141E-1,1.6461556E-1,3.96443E-1,-5.7484016E-2,1.2437003E-1,-8.497167E-2,2.5038028E-1,-1.4702187E-1,2.6853684E-1,4.5665205E-2,2.1526581E-1,6.675204E-2,1.9946371E-1,2.0245378E-1,5.1426846E-1,-7.34667E-2,1.7819162E-1,2.9272687E-1,9.299852E-2,3.1903583E-1,1.1028582E-1,4.2441323E-2,1.724553E-1,1.7479397E-1,4.317929E-2,3.0380782E-1,1.6080356E-1,-2.8617287E-1,-1.1647542E-1,-1.752033E-1,4.536681E-2,9.201193E-2,-4.8285905E-2,7.0159264E-2,-2.4615528E-1,3.7557536E-1,-1.9651994E-2,8.868676E-2,-2.3638283E-1,1.4896175E-1,8.47386E-2,1.3785987E-1,3.226639E-1],"categories":[],"categories_nodes":[],"categories_segments":[],"categories_sizes":[],"default_left":[1,1,1,1,1,1,1,1,1,1,1,1,1,1,1,1,1,1,1,1,1,1,1,1,1,1,1,1,1,1,0,1,0,1,1,1,1,1,1,1,1,1,1,1,1,1,1,1,1,1,1,1,1,1,1,1,1,1,1,1,1,0,0,0,0,0,0,0,0,0,0,0,0,0,0,0,0,0,0,0,0,0,0,0,0,0,0,0,0,0,0,0,0,0,0,0,0,0,0,0,0,0,0,0,0,0,0,0,0,0,0,0,0,0,0,0,0,0,0],"id":4,"left_children":[1,3,5,7,9,11,13,15,17,19,21,23,25,27,29,31,33,35,37,39,41,43,45,47,49,51,53,55,57,59,-1,61,-1,63,65,67,69,71,73,75,77,79,81,83,85,87,89,91,93,95,97,99,101,103,105,107,109,111,113,115,117,-1,-1,-1,-1,-1,-1,-1,-1,-1,-1,-1,-1,-1,-1,-1,-1,-1,-1,-1,-1,-1,-1,-1,-1,-1,-1,-1,-1,-1,-1,-1,-1,-1,-1,-1,-1,-1,-1,-1,-1,-1,-1,-1,-1,-1,-1,-1,-1,-1,-1,-1,-1,-1,-1,-1,-1,-1,-1],"loss_changes":[1.1319453E2,2.1934402E1,2.3189367E1,3.0693665E0,1.5376858E1,5.389433E0,1.2346312E1,1.2954426E0,1.592804E0,4.7292824E0,1.1641164E1,9.5557976E-1,9.152775E0,1.3859901E1,9.479675E-1,1.1091423E-1,7.7206373E-1,1.664238E-1,2.4414368E0,1.2730217E0,1.5992823E0,4.6500373E0,3.2928696E0,1.2576733E0,4.8290813E-1,1.594202E0,1.3123617E0,1.2581822E1,7.1396856E0,5.990176E-1,0E0,5.2455902E-2,0E0,1.9542456E-1,3.177405E-1,4.1728973E-2,3.1680107E-2,9.174347E-1,3.1150818E-1,8.7979126E-1,3.170967E-3,7.783458E-1,5.9037113E-1,3.0874405E0,4.413613E-1,1.0796051E0,2.041978E0,6.561296E-1,4.4821358E-1,1.161077E-1,3.3295083E-1,1.7761543E0,9.1066265E-1,5.7383204E-1,5.473691E-1,9.565981E0,5.7174015E0,7.559376E-1,4.188364E0,5.15738E-1,1.6711164E-1,0E0,0E0,0E0,0E0,0E0,0E0,0E0,0E0,0E0,0E0,0E0,0E0,0E0,0E0,0E0,0E0,0E0,0E0,0E0,0E0,0E0,0E0,0E0,0E0,0E0,0E0,0E0,0E0,0E0,0E0,0E0,0E0,0E0,0E0,0E0,0E0,0E0,0E0,0E0,0E0,0E0,0E0,0E0,0E0,0E0,0E0,0E0,0E0,0E0,0E0,0E0,0E0,0E0,0E0,0E0,0E0,0E0,0E0],"parents":[2147483647,0,0,1,1,2,2,3,3,4,4,5,5,6,6,7,7,8,8,9,9,10,10,11,11,12,12,13,13,14,14,15,15,16,16,17,17,18,18,19,19,20,20,21,21,22,22,23,23,24,24,25,25,26,26,27,27,28,28,29,29,31,31,33,33,34,34,35,35,36,36,37,37,38,38,39,39,40,40,41,41,42,42,43,43,44,44,45,45,46,46,47,47,48,48,49,49,50,50,51,51,52,52,53,53,54,54,55,55,56,56,57,57,58,58,59,59,60,60],"right_children":[2,4,6,8,10,12,14,16,18,20,22,24,26,28,30,32,34,36,38,40,42,44,46,48,50,52,54,56,58,60,-1,62,-1,64,66,68,70,72,74,76,78,80,82,84,86,88,90,92,94,96,98,100,102,104,106,108,110,112,114,116,118,-1,-1,-1,-1,-1,-1,-1,-1,-1,-1,-1,-1,-1,-1,-1,-1,-1,-1,-1,-1,-1,-1,-1,-1,-1,-1,-1,-1,-1,-1,-1,-1,-1,-1,-1,-1,-1,-1,-1,-1,-1,-1,-1,-1,-1,-1,-1,-1,-1,-1,-1,-1,-1,-1,-1,-1,-1,-1],"split_conditions":[8.5368145E-1,9.666145E-1,8.1878453E-1,1.711032E-1,6.8078744E-1,3.8238448E-1,1.0184202E0,6.3406354E-1,4.3730706E-1,9.160521E-1,8.512466E-1,5.3531957E-1,9.339639E-1,1.0963843E0,8.2357943E-1,4.6717525E-1,6.029452E-1,7.327782E-1,9.620008E-1,9.8615855E-1,5.7207084E-1,6.1376953E-1,4.8645353E-1,1.6265355E-1,-1.1020536E-8,4.877029E-1,1.0144565E0,5.254121E-1,3.4876892E-1,9.2624305E-8,1.0992043E-1,5.4133025E-8,1.0756708E-1,1.9096237E-1,6.280584E-9,9.5111924E-1,9.2814183E-1,6.128988E-1,9.964499E-1,4.7438872E-1,1.8758154E-1,2.26722E-1,8.96332E-1,4.6881306E-1,1.9159581E-1,5.5247223E-1,1.2395364E-1,1.26997605E-2,4.3656975E-8,3.396801E-8,8.036245E-1,7.139349E-1,9.1251993E-1,8.799945E-1,1.12459615E-1,5.9931993E-1,6.3089645E-1,8.6235297E-1,1.0225518E0,1.0209795E0,6.8412755E-9,7.517968E-2,2.6940645E-3,3.5444003E-2,6.2886894E-2,-6.1027512E-2,4.0915646E-2,1.06230125E-1,9.088451E-2,1.0598126E-1,1.3428922E-1,7.92699E-2,-5.4284286E-2,1.0237309E-1,1.2959395E-1,9.423732E-2,6.5871425E-2,4.938467E-2,1.1893291E-1,-1.7245205E-2,3.731101E-2,-2.54915E-2,7.5114086E-2,-4.4106565E-2,8.056106E-2,1.3699562E-2,6.457975E-2,2.0025613E-2,5.9839115E-2,6.0736135E-2,1.5428054E-1,-2.2040011E-2,5.3457487E-2,8.7818064E-2,2.7899558E-2,9.5710754E-2,3.308575E-2,1.2732398E-2,5.173659E-2,5.2438196E-2,1.2953787E-2,9.114235E-2,4.8241068E-2,-8.585186E-2,-3.4942627E-2,-5.256099E-2,1.3610044E-2,2.760358E-2,-1.4485772E-2,2.104778E-2,-7.3846586E-2,1.1267261E-1,-5.8955983E-3,2.6606029E-2,-7.091485E-2,4.4688527E-2,2.542158E-2,4.135796E-2,9.679917E-2],"split_indices":[63,94,60,74,93,46,63,60,96,62,60,91,96,64,80,55,91,60,98,98,90,90,58,54,20,59,39,89,78,28,0,7,0,84,0,93,97,91,98,93,50,52,98,59,52,90,85,85,7,29,97,96,61,63,75,93,98,93,65,65,26,0,0,0,0,0,0,0,0,0,0,0,0,0,0,0,0,0,0,0,0,0,0,0,0,0,0,0,0,0,0,0,0,0,0,0,0,0,0,0,0,0,0,0,0,0,0,0,0,0,0,0,0,0,0,0,0,0,0],"split_type":[0,0,0,0,0,0,0,0,0,0,0,0,0,0,0,0,0,0,0,0,0,0,0,0,0,0,0,0,0,0,0,0,0,0,0,0,0,0,0,0,0,0,0,0,0,0,0,0,0,0,0,0,0,0,0,0,0,0,0,0,0,0,0,0,0,0,0,0,0,0,0,0,0,0,0,0,0,0,0,0,0,0,0,0,0,0,0,0,0,0,0,0,0,0,0,0,0,0,0,0,0,0,0,0,0,0,0,0,0,0,0,0,0,0,0,0,0,0,0],"sum_hessian":[1.1203E4,3.859E3,7.344E3,2.089E3,1.77E3,1.27E3,6.074E3,2.03E2,1.886E3,9.86E2,7.84E2,4.66E2,8.04E2,5.495E3,5.79E2,6E1,1.43E2,4.6E2,1.426E3,5.24E2,4.62E2,4.17E2,3.67E2,3.65E2,1.01E2,6.64E2,1.4E2,4.843E3,6.52E2,5.64E2,1.5E1,3.5E1,2.5E1,1.31E2,1.2E1,3.73E2,8.7E1,1.045E3,3.81E2,4.25E2,9.9E1,3.2E2,1.42E2,3.48E2,6.9E1,2.77E2,9E1,1.11E2,2.54E2,1.9E1,8.2E1,4.26E2,2.38E2,8.8E1,5.2E1,4.37E3,4.73E2,9.8E1,5.54E2,5.37E2,2.7E1,3.4E1,1E0,9.7E1,3.4E1,9E0,3E0,2.97E2,7.6E1,4E1,4.7E1,1.041E3,4E0,3.18E2,6.3E1,1.97E2,2.28E2,2E0,9.7E1,2.5E1,2.95E2,5E0,1.37E2,3.3E2,1.8E1,2.4E1,4.5E1,1.85E2,9.2E1,5.4E1,3.6E1,1.1E1,1E2,2.41E2,1.3E1,1.4E1,5E0,4.9E1,3.3E1,1.72E2,2.54E2,6.2E1,1.76E2,5.3E1,3.5E1,1.5E1,3.7E1,5.56E2,3.814E3,6.6E1,4.07E2,9.3E1,5E0,5.12E2,4.2E1,2.08E2,3.29E2,1E1,1.7E1],"tree_param":{"num_deleted":"0","num_feature":"99","num_nodes":"119","size_leaf_vector":"0"}},{"base_weights":[5.9326973E-2,1.5802146E-1,8.853527E-3,2.1655634E-1,1.0945784E-1,7.8608304E-2,-1.6385365E-2,2.2333333E-1,1.1446916E-1,1.9017524E-1,6.54743E-2,5.6502424E-2,2.0051593E-1,-3.581527E-2,1.2675254E-1,2.8143746E-1,2.1398304E-1,1.5612742E-1,6.2189873E-2,2.9329427E-2,2.090679E-1,1.1775503E-1,6.2129432E-3,1.4605984E-3,9.1877274E-2,2.4119101E-1,1.2732679E-1,7.5384505E-2,-5.3582434E-2,6.577649E-2,1.8659852E-1,2.9658946E-1,2.5669906E-1,1.74348E-1,2.3363386E-1,1.9342065E-2,1.6051067E-1,1.1748165E-2,9.831151E-2,1.5089639E-1,-2.058858E-1,2.2936764E-1,7.413306E-2,1.5456206E-1,6.845531E-2,-7.069882E-2,1.3700213E-1,7.777567E-2,-4.8775807E-2,2.387945E-2,1.24406256E-1,1.9690457E-1,3.215371E-1,6.1379876E-2,2.2121942E-1,-3.4386188E-2,1.03885844E-1,-1.2056224E-1,-3.4028054E-3,-2.4077887E-2,1.3514012E-1,2.2043145E-1,1.4237882E-1,4.351064E-2,1.8930407E-1,2.6017812E-1,2.0782718E-1,3.7512183E-3,2.5261879E-2,1.2111359E-1,1.7659864E-1,4.2928856E-2,-1.3929716E-1,3.438733E-2,1.3014597E-1,3.163344E-1,1.0397461E-1,5.717454E-2,-2.5412127E-1,2.1563016E-1,4.6038067E-1,-4.8139147E-2,1.7448214E-1,1.7888315E-1,1.22448005E-1,5.342793E-2,2.814267E-1,-1.5838245E-1,-5.2974517E-3,9.010918E-2,2.5015098E-1,1.4900939E-1,5.0747417E-2,9.976796E-2,-6.864051E-2,1.1940449E-1,-2.7770707E-2,8.4896706E-2,1.6998526E-1,2.1608144E-1,6.8773456E-2,4.1181257E-1,2.0341678E-1,9.367733E-2,-3.7223205E-2,1.3218874E-1,2.495885E-1,-9.0946816E-2,5.4233793E-2,-1.3899594E-2,1.4268586E-1,-1.5561192E-1,2.4328929E-1,6.335956E-2,-1.7965022E-1,-9.055578E-2,7.9630226E-2,2.1461187E-1,7.668719E-2,1.873075E-1,2.781921E-1,1.4969042E-1,-1.543533E-3],"categories":[],"categories_nodes":[],"categories_segments":[],"categories_sizes":[],"default_left":[1,1,1,1,1,1,1,1,1,1,1,1,1,1,1,1,1,1,1,1,1,1,1,1,1,1,1,1,1,1,1,0,0,1,1,1,1,1,1,1,1,1,1,1,1,1,1,1,1,1,1,1,1,1,1,1,1,1,1,1,1,1,1,0,0,0,0,0,0,0,0,0,0,0,0,0,0,0,0,0,0,0,0,0,0,0,0,0,0,0,0,0,0,0,0,0,0,0,0,0,0,0,0,0,0,0,0,0,0,0,0,0,0,0,0,0,0,0,0,0,0,0,0],"id":5,"left_children":[1,3,5,7,9,11,13,15,17,19,21,23,25,27,29,31,33,35,37,39,41,43,45,47,49,51,53,55,57,59,61,-1,-1,63,65,67,69,71,73,75,77,79,81,83,85,87,89,91,93,95,97,99,101,103,105,107,109,111,113,115,117,119,121,-1,-1,-1,-1,-1,-1,-1,-1,-1,-1,-1,-1,-1,-1,-1,-1,-1,-1,-1,-1,-1,-1,-1,-1,-1,-1,-1,-1,-1,-1,-1,-1,-1,-1,-1,-1,-1,-1,-1,-1,-1,-1,-1,-1,-1,-1,-1,-1,-1,-1,-1,-1,-1,-1,-1,-1,-1,-1,-1,-1],"loss_changes":[5.5810776E1,1.0752838E1,1.3053881E1,1.1630249E0,7.3507385E0,5.297575E0,1.5147932E1,8.14476E-1,2.276777E-1,2.2152348E0,4.1632857E0,3.24957E0,8.683348E-1,9.477545E0,2.3633375E0,6.33049E-3,1.0426636E0,3.286934E-2,8.994691E-2,2.2614307E0,1.7743969E0,1.2850266E0,6.3570585E0,2.5110955E0,2.244319E0,6.234293E-1,6.67534E-1,2.0715845E0,1.3897415E1,2.022625E0,4.593296E-1,0E0,0E0,9.0168E-1,5.8094406E-1,1.8212199E-4,1.5372992E-2,1.0959321E-1,5.4539353E-2,3.7076676E-1,3.5712802E-1,1.7032967E0,1.075881E0,2.9676342E-1,9.6748686E-1,2.2815433E0,1.2190356E0,4.9302232E-1,1.1724052E0,1.6314973E0,1.222723E0,2.971983E-1,6.3067675E-1,2.1367243E-1,8.06644E-2,6.9163144E-1,2.4012733E0,2.2623207E1,2.7839615E1,9.862011E-1,8.336427E-1,2.9993343E-1,1.5281487E-1,0E0,0E0,0E0,0E0,0E0,0E0,0E0,0E0,0E0,0E0,0E0,0E0,0E0,0E0,0E0,0E0,0E0,0E0,0E0,0E0,0E0,0E0,0E0,0E0,0E0,0E0,0E0,0E0,0E0,0E0,0E0,0E0,0E0,0E0,0E0,0E0,0E0,0E0,0E0,0E0,0E0,0E0,0E0,0E0,0E0,0E0,0E0,0E0,0E0,0E0,0E0,0E0,0E0,0E0,0E0,0E0,0E0,0E0,0E0,0E0],"parents":[2147483647,0,0,1,1,2,2,3,3,4,4,5,5,6,6,7,7,8,8,9,9,10,10,11,11,12,12,13,13,14,14,15,15,16,16,17,17,18,18,19,19,20,20,21,21,22,22,23,23,24,24,25,25,26,26,27,27,28,28,29,29,30,30,33,33,34,34,35,35,36,36,37,37,38,38,39,39,40,40,41,41,42,42,43,43,44,44,45,45,46,46,47,47,48,48,49,49,50,50,51,51,52,52,53,53,54,54,55,55,56,56,57,57,58,58,59,59,60,60,61,61,62,62],"right_children":[2,4,6,8,10,12,14,16,18,20,22,24,26,28,30,32,34,36,38,40,42,44,46,48,50,52,54,56,58,60,62,-1,-1,64,66,68,70,72,74,76,78,80,82,84,86,88,90,92,94,96,98,100,102,104,106,108,110,112,114,116,118,120,122,-1,-1,-1,-1,-1,-1,-1,-1,-1,-1,-1,-1,-1,-1,-1,-1,-1,-1,-1,-1,-1,-1,-1,-1,-1,-1,-1,-1,-1,-1,-1,-1,-1,-1,-1,-1,-1,-1,-1,-1,-1,-1,-1,-1,-1,-1,-1,-1,-1,-1,-1,-1,-1,-1,-1,-1,-1,-1,-1,-1],"split_conditions":[8.508571E-1,8.023523E-1,9.320532E-1,4.9930298E-1,9.967571E-1,3.3646882E-1,7.816415E-1,8.317225E-2,7.1940136E-1,4.3289712E-1,7.078136E-1,3.0397993E-1,8.9911604E-1,5.742618E-1,8.6360075E-2,2.4345106E-1,4.437164E-1,8.093003E-1,-2.7998628E-9,4.5106554E-1,4.272636E-1,8.633811E-1,8.697825E-1,7.8643084E-1,3.147389E-5,6.834213E-1,5.7347745E-1,9.132635E-1,2.061034E-2,4.5665056E-2,2.9319054E-1,8.8976845E-2,7.700972E-2,2.4510005E-1,9.810318E-2,-3.1844412E-9,-4.780515E-9,9.0970343E-1,-4.275029E-10,1.15414426E-1,9.960584E-1,1.7884593E-1,4.8263064E-1,4.2665735E-1,2.2746256E-1,8.131054E-1,4.844926E-1,9.393651E-1,7.96417E-1,9.6682906E-1,1.4932635E-1,1.3949983E-1,7.033632E-1,1.4730629E-8,-1.0137061E-8,3.7940696E-3,1.8189844E-2,6.94393E-1,8.922583E-1,6.0879266E-1,6.9639057E-1,6.716256E-2,9.781086E-9,1.3053192E-2,5.6791224E-2,7.805344E-2,6.2348157E-2,1.1253655E-3,7.578564E-3,3.633408E-2,5.2979592E-2,1.2878657E-2,-4.1789148E-2,1.03162E-2,3.904379E-2,9.4900325E-2,3.1192385E-2,1.7152363E-2,-7.623638E-2,6.468905E-2,1.3811421E-1,-1.4441744E-2,5.2344643E-2,5.366495E-2,3.6734402E-2,1.602838E-2,8.442801E-2,-4.7514737E-2,-1.5892356E-3,2.7032753E-2,7.5045295E-2,4.470282E-2,1.5224226E-2,2.9930389E-2,-2.0592153E-2,3.582135E-2,-8.331212E-3,2.5469013E-2,5.099558E-2,6.482443E-2,2.0632038E-2,1.2354378E-1,6.1025035E-2,2.8103199E-2,-1.1166962E-2,3.9656624E-2,7.4876554E-2,-2.7284047E-2,1.6270138E-2,-4.169878E-3,4.280576E-2,-4.6683576E-2,7.298679E-2,1.9007869E-2,-5.3895067E-2,-2.7166735E-2,2.3889069E-2,6.438357E-2,2.3006156E-2,5.6192253E-2,8.3457634E-2,4.4907127E-2,-4.6305993E-4],"split_indices":[63,62,96,91,96,74,92,91,96,58,95,50,61,93,81,93,58,65,11,91,47,65,60,94,66,92,91,98,85,77,46,0,0,52,79,0,25,64,10,73,40,87,58,97,77,60,58,63,60,33,85,81,44,4,26,85,83,97,93,97,44,49,18,0,0,0,0,0,0,0,0,0,0,0,0,0,0,0,0,0,0,0,0,0,0,0,0,0,0,0,0,0,0,0,0,0,0,0,0,0,0,0,0,0,0,0,0,0,0,0,0,0,0,0,0,0,0,0,0,0,0,0,0],"split_type":[0,0,0,0,0,0,0,0,0,0,0,0,0,0,0,0,0,0,0,0,0,0,0,0,0,0,0,0,0,0,0,0,0,0,0,0,0,0,0,0,0,0,0,0,0,0,0,0,0,0,0,0,0,0,0,0,0,0,0,0,0,0,0,0,0,0,0,0,0,0,0,0,0,0,0,0,0,0,0,0,0,0,0,0,0,0,0,0,0,0,0,0,0,0,0,0,0,0,0,0,0,0,0,0,0,0,0,0,0,0,0,0,0,0,0,0,0,0,0,0,0,0,0],"sum_hessian":[1.1203E4,3.79E3,7.413E3,1.717E3,2.073E3,1.969E3,5.444E3,1.609E3,1.08E2,7.3E2,1.343E3,1.668E3,3.01E2,4.794E3,6.5E2,2.19E2,1.39E3,5.9E1,4.9E1,7.7E1,6.53E2,7.13E2,6.3E2,6.53E2,1.015E3,1.92E2,1.09E2,6.6E2,4.134E3,3.23E2,3.27E2,1.29E2,9E1,4.64E2,9.26E2,2E0,5.7E1,2.1E1,2.8E1,5.1E1,2.6E1,5.67E2,8.6E1,4.07E2,3.06E2,3.97E2,2.33E2,2.59E2,3.94E2,3.29E2,6.86E2,1.26E2,6.6E1,6.5E1,4.4E1,1.36E2,5.24E2,1.77E3,2.364E3,1.41E2,1.82E2,1.83E2,1.44E2,4.8E1,4.16E2,4.52E2,4.74E2,1E0,1E0,1.9E1,3.8E1,1.8E1,3E0,1E1,1.8E1,1E1,4.1E1,4E0,2.2E1,5.37E2,3E1,3.9E1,4.7E1,2.29E2,1.78E2,2.87E2,1.9E1,1.69E2,2.28E2,1.66E2,6.7E1,7E1,1.89E2,4.6E1,3.48E2,1.15E2,2.14E2,3.69E2,3.17E2,1.09E2,1.7E1,3.6E1,3E1,4.9E1,1.6E1,1.2E1,3.2E1,8.3E1,5.3E1,1.3E2,3.94E2,1.615E3,1.55E2,1.715E3,6.49E2,8.6E1,5.5E1,7.6E1,1.06E2,1.19E2,6.4E1,1.37E2,7E0],"tree_param":{"num_deleted":"0","num_feature":"99","num_nodes":"123","size_leaf_vector":"0"}},{"base_weights":[4.1699197E-2,1.05778374E-1,2.8765544E-3,1.5401903E-1,7.377236E-2,7.030619E-2,-1.5318683E-2,1.8234499E-1,1.3448128E-1,2.9366884E-2,1.3265488E-1,8.749623E-2,-7.13878E-2,-2.206803E-2,1.4437357E-1,2.1495223E-1,1.6311105E-1,1.5636037E-1,9.387501E-2,-1.2095104E-2,1.15391E-1,1.5320368E-1,7.706547E-2,5.1172666E-2,1.3393974E-1,-1.4661379E-1,8.911693E-2,-2.802378E-2,1.3571917E-1,2.4238013E-1,5.9753317E-2,2.1575586E-1,7.021904E-3,1.4923279E-1,2.3844197E-1,1.972358E-1,1.436779E-1,9.679897E-2,-9.136015E-2,4.0669877E-2,-1.1473659E-1,2.013004E-1,9.377919E-2,1.284106E-1,1.9634026E-1,-1.2925489E-1,9.7337E-2,1.4675966E-1,3.506141E-2,1.5848494E-1,8.9279674E-2,-1.7074247E-1,-4.572002E-3,1.3977398E-1,-5.836465E-2,-3.799235E-2,6.0279436E-2,3.1646243E-1,9.895207E-2,2.7446783E-1,6.390895E-2,-4.2912655E-2,1.0910558E-1,2.4227163E-1,2.0492809E-1,1.2927662E-1,1.9128096E-1,2.4665745E-1,8.888169E-2,2.1279034E-1,1.7566676E-1,1.8456939E-1,1.15477376E-1,1.8363209E-1,9.122614E-2,1.9002646E-2,-1.1723324E-1,5.9255127E-2,-1.4245313E-1,7.086363E-2,-1.4933471E-1,1.6784239E-1,3.4297243E-1,1.3638438E-1,5.8842704E-2,1.6833669E-1,9.300316E-2,1.5912904E-1,3.1493664E-1,-2.279415E-1,-6.724819E-2,1.3687475E-1,5.9363287E-2,2.1227571E-1,7.06582E-2,1.08860016E-1,1.3328902E-2,1.255488E-1,2.1562013E-1,1.2186208E-1,2.9875372E-2,-3.6972232E-2,-1.9567388E-1,-3.83749E-2,6.37958E-2,1.5805503E-2,1.6639817E-1,-1.2663634E-1,2.7997945E-2,7.095246E-2,-4.635389E-2,-2.41945E-2,1.1879811E-1,1.2591763E-1,3.973502E-1,6.5249085E-2,2.1416385E-1,1.8466E-1,3.2088536E-1,9.825956E-2,-7.229545E-2,-1.3548377E-1,3.8985696E-2,1.3763249E-1,6.257676E-2],"categories":[],"categories_nodes":[],"categories_segments":[],"categories_sizes":[],"default_left":[1,1,1,1,1,1,1,1,1,1,1,1,1,1,1,1,1,1,1,1,1,1,1,1,1,1,1,1,1,1,1,1,0,1,1,1,1,1,1,1,1,1,1,1,1,1,1,1,1,1,1,1,1,1,1,1,1,1,1,1,1,1,1,0,0,0,0,0,0,0,0,0,0,0,0,0,0,0,0,0,0,0,0,0,0,0,0,0,0,0,0,0,0,0,0,0,0,0,0,0,0,0,0,0,0,0,0,0,0,0,0,0,0,0,0,0,0,0,0,0,0,0,0,0,0],"id":6,"left_children":[1,3,5,7,9,11,13,15,17,19,21,23,25,27,29,31,33,35,37,39,41,43,45,47,49,51,53,55,57,59,61,63,-1,65,67,69,71,73,75,77,79,81,83,85,87,89,91,93,95,97,99,101,103,105,107,109,111,113,115,117,119,121,123,-1,-1,-1,-1,-1,-1,-1,-1,-1,-1,-1,-1,-1,-1,-1,-1,-1,-1,-1,-1,-1,-1,-1,-1,-1,-1,-1,-1,-1,-1,-1,-1,-1,-1,-1,-1,-1,-1,-1,-1,-1,-1,-1,-1,-1,-1,-1,-1,-1,-1,-1,-1,-1,-1,-1,-1,-1,-1,-1,-1,-1,-1],"loss_changes":[2.7872143E1,6.515087E0,8.562372E0,9.0800095E-1,6.645301E0,3.6184273E0,5.926875E0,3.945465E-1,8.746395E-1,5.1767216E0,1.236723E0,2.2250395E0,1.957E0,4.959998E0,1.8349319E0,4.0427208E-2,4.1919327E-1,3.0810452E-1,2.000351E-1,5.312225E0,8.574648E-1,8.271713E-1,1.2547629E0,1.1406341E0,6.216402E-1,3.7622023E-1,3.9664894E-1,4.4766364E0,1.2446036E0,5.723119E-1,6.1776465E-1,2.2128105E-2,0E0,2.8574657E-1,5.917144E-2,1.3279915E-2,5.541134E-1,1.5164733E-1,1.93603E-2,2.2138352E0,2.1489153E0,3.8800097E-1,5.5610704E-1,7.03907E-1,1.225275E0,1.4989066E-1,3.987527E-1,5.1848865E-1,1.0217918E0,6.748457E-1,3.9895082E-1,3.062632E-1,4.1735664E-2,1.2609178E-1,8.609123E-2,4.164491E0,2.553618E0,4.431746E-1,6.1118615E-1,3.0341864E-1,8.664169E-2,3.085388E-1,1.0022795E-1,0E0,0E0,0E0,0E0,0E0,0E0,0E0,0E0,0E0,0E0,0E0,0E0,0E0,0E0,0E0,0E0,0E0,0E0,0E0,0E0,0E0,0E0,0E0,0E0,0E0,0E0,0E0,0E0,0E0,0E0,0E0,0E0,0E0,0E0,0E0,0E0,0E0,0E0,0E0,0E0,0E0,0E0,0E0,0E0,0E0,0E0,0E0,0E0,0E0,0E0,0E0,0E0,0E0,0E0,0E0,0E0,0E0,0E0,0E0,0E0,0E0,0E0],"parents":[2147483647,0,0,1,1,2,2,3,3,4,4,5,5,6,6,7,7,8,8,9,9,10,10,11,11,12,12,13,13,14,14,15,15,16,16,17,17,18,18,19,19,20,20,21,21,22,22,23,23,24,24,25,25,26,26,27,27,28,28,29,29,30,30,31,31,33,33,34,34,35,35,36,36,37,37,38,38,39,39,40,40,41,41,42,42,43,43,44,44,45,45,46,46,47,47,48,48,49,49,50,50,51,51,52,52,53,53,54,54,55,55,56,56,57,57,58,58,59,59,60,60,61,61,62,62],"right_children":[2,4,6,8,10,12,14,16,18,20,22,24,26,28,30,32,34,36,38,40,42,44,46,48,50,52,54,56,58,60,62,64,-1,66,68,70,72,74,76,78,80,82,84,86,88,90,92,94,96,98,100,102,104,106,108,110,112,114,116,118,120,122,124,-1,-1,-1,-1,-1,-1,-1,-1,-1,-1,-1,-1,-1,-1,-1,-1,-1,-1,-1,-1,-1,-1,-1,-1,-1,-1,-1,-1,-1,-1,-1,-1,-1,-1,-1,-1,-1,-1,-1,-1,-1,-1,-1,-1,-1,-1,-1,-1,-1,-1,-1,-1,-1,-1,-1,-1,-1,-1,-1,-1,-1,-1],"split_conditions":[8.0360436E-1,7.216108E-1,9.4251996E-1,7.9609424E-2,4.843202E-1,9.772871E-1,5.344324E-1,5.615653E-1,9.555719E-1,5.7435286E-1,9.769517E-1,5.976577E-1,9.2749727E-1,5.138031E-1,9.795475E-1,6.358278E-1,5.4879355E-1,5.250151E-1,2.8021198E-8,3.8113105E-1,6.633207E-2,6.242036E-1,6.985671E-1,7.059285E-1,9.8161185E-1,6.0422707E-1,5.0844616E-1,9.363867E-1,1.0448937E0,3.9476302E-1,2.7236262E-2,4.9744314E-1,2.1065713E-3,2.9283527E-1,9.615886E-2,2.946466E-2,4.7174123E-1,2.8772762E-1,-3.0973258E-8,5.825167E-1,1.3428849E-1,1.0095013E0,9.9967045E-1,4.801759E-1,9.9824175E-2,-1.09631735E-8,7.018745E-1,9.785727E-1,7.050742E-1,1.0319352E0,4.474884E-1,9.954105E-1,-8.745418E-9,2.6396105E-2,1.0031027E0,1.8501064E-1,2.2560239E-2,1.0172442E0,2.92915E-1,1.755647E-1,1.0328231E0,1.4441583E-1,9.6021616E-1,7.2681494E-2,6.147843E-2,3.8782988E-2,5.738429E-2,7.399724E-2,2.6664507E-2,6.38371E-2,5.270003E-2,5.537082E-2,3.4643214E-2,5.508963E-2,2.7367843E-2,5.700794E-3,-3.5169974E-2,1.777654E-2,-4.273594E-2,2.1259088E-2,-4.4800416E-2,5.035272E-2,1.02891736E-1,4.0915318E-2,1.7652811E-2,5.0501008E-2,2.790095E-2,4.7738712E-2,9.4481E-2,-6.838245E-2,-2.0174457E-2,4.1062426E-2,1.7808987E-2,6.368272E-2,2.119746E-2,3.2658007E-2,3.9986707E-3,3.766464E-2,6.4686045E-2,3.6558628E-2,8.962612E-3,-1.109167E-2,-5.8702167E-2,-1.151247E-2,1.913874E-2,4.741651E-3,4.9919453E-2,-3.7990905E-2,8.399384E-3,2.1285739E-2,-1.3906168E-2,-7.25835E-3,3.5639435E-2,3.777529E-2,1.19205065E-1,1.9574726E-2,6.424916E-2,5.5398002E-2,9.6265614E-2,2.947787E-2,-2.1688636E-2,-4.0645134E-2,1.1695709E-2,4.1289747E-2,1.877303E-2],"split_indices":[61,63,64,79,58,62,58,61,94,90,94,90,65,59,94,63,59,65,15,82,87,92,92,93,94,90,91,98,65,79,85,61,0,52,81,91,94,46,1,91,49,41,96,94,85,20,44,94,96,39,58,40,31,56,41,74,83,37,67,49,39,73,63,0,0,0,0,0,0,0,0,0,0,0,0,0,0,0,0,0,0,0,0,0,0,0,0,0,0,0,0,0,0,0,0,0,0,0,0,0,0,0,0,0,0,0,0,0,0,0,0,0,0,0,0,0,0,0,0,0,0,0,0,0,0],"split_type":[0,0,0,0,0,0,0,0,0,0,0,0,0,0,0,0,0,0,0,0,0,0,0,0,0,0,0,0,0,0,0,0,0,0,0,0,0,0,0,0,0,0,0,0,0,0,0,0,0,0,0,0,0,0,0,0,0,0,0,0,0,0,0,0,0,0,0,0,0,0,0,0,0,0,0,0,0,0,0,0,0,0,0,0,0,0,0,0,0,0,0,0,0,0,0,0,0,0,0,0,0,0,0,0,0,0,0,0,0,0,0,0,0,0,0,0,0,0,0,0,0,0,0,0,0],"sum_hessian":[1.1203E4,4.226E3,6.977E3,1.684E3,2.542E3,1.482E3,5.495E3,6.84E2,1E3,1.45E3,1.092E3,1.322E3,1.6E2,5.273E3,2.22E2,2.5E2,4.34E2,6.48E2,3.52E2,9.79E2,4.71E2,7.96E2,2.96E2,7.43E2,5.79E2,1.09E2,5.1E1,5.082E3,1.91E2,1.02E2,1.2E2,2.49E2,1E0,3.69E2,6.5E1,1.5E2,4.98E2,3.47E2,5E0,6.47E2,3.32E2,9.3E1,3.78E2,5.08E2,2.88E2,2.6E1,2.7E2,1.06E2,6.37E2,3.72E2,2.07E2,9.3E1,1.6E1,3.8E1,1.3E1,4.567E3,5.15E2,3.1E1,1.6E2,8.6E1,1.6E1,3.9E1,8.1E1,6.6E1,1.83E2,2.53E2,1.16E2,6.1E1,4E0,8.2E1,6.8E1,2.01E2,2.97E2,1.9E1,3.28E2,1E0,4E0,5.88E2,5.9E1,5.2E1,2.8E2,7.7E1,1.6E1,1.69E2,2.09E2,2.37E2,2.71E2,2.21E2,6.7E1,9E0,1.7E1,1.31E2,1.39E2,5.6E1,5E1,1.44E2,4.93E2,2.38E2,1.34E2,1.33E2,7.4E1,1.5E1,7.8E1,1.1E1,5E0,7E0,3.1E1,7E0,6E0,3.25E2,4.242E3,2.11E2,3.04E2,1E1,2.1E1,1.25E2,3.5E1,3.1E1,5.5E1,1.3E1,3E0,1.8E1,2.1E1,4.9E1,3.2E1],"tree_param":{"num_deleted":"0","num_feature":"99","num_nodes":"125","size_leaf_vector":"0"}},{"base_weights":[2.9336387E-2,7.4268885E-2,2.1138315E-3,1.00622185E-1,4.3649256E-2,4.491505E-2,-1.3967627E-2,9.592191E-2,1.8054909E-1,1.1668676E-2,8.616192E-2,9.527432E-2,2.1480123E-2,-5.0037585E-2,1.666538E-2,1.2900773E-1,8.558841E-2,1.6479725E-1,3.6526212E-1,-1.1469839E-1,4.1537054E-2,5.7933856E-2,1.2729937E-1,1.3621165E-1,5.8631293E-2,-3.9140034E-2,4.9090784E-2,-1.515895E-1,-1.3371431E-2,-4.6076052E-2,6.452675E-2,1.17339775E-1,1.504173E-1,1.1662842E-1,6.3787796E-2,1.9182488E-1,1.2971269E-1,1.9855267E-1,5.240108E-1,-4.2140573E-2,-1.4269403E-1,5.635711E-2,-1.0025345E-1,-6.668748E-2,6.8621315E-2,3.602511E-1,1.2062109E-1,5.805123E-3,1.4872842E-1,2.9987551E-2,1.1726997E-1,1.05468884E-1,-5.131071E-2,1.5343228E-1,2.9045219E-2,-2.0360053E-1,-7.724735E-2,-5.3710006E-2,9.437069E-2,-8.331702E-2,6.443494E-2,3.5231385E-2,1.14773534E-1,1.0861709E-1,1.4552182E-1,1.4063768E-1,1.8223177E-1,1.3893494E-1,1.0432028E-1,3.029441E-2,9.673643E-2,1.2726077E-1,2.0427696E-1,1.3422793E-1,8.2109375E-3,1.5811194E-1,-6.284369E-2,-1.5468818E-1,-5.459878E-2,4.2261474E-2,2.1943316E-1,6.346624E-2,-1.35736E-1,-1.24181464E-1,6.2275518E-2,5.995702E-2,1.7236511E-1,9.2102095E-2,1.520048E-1,-1.2645042E-1,1.9764909E-1,1.1298136E-1,1.8253632E-1,-3.3925108E-3,6.696541E-2,1.4450293E-2,1.459334E-1,6.2374562E-2,1.5642054E-1,-8.942739E-2,-6.80216E-3,6.6077575E-2,2.0990518E-1,6.3378006E-2,-1.326079E-3,2.2879371E-2,-2.1275124E-1,-1.7349498E-1,-4.358457E-2,-1.0326057E-1,6.630878E-2,2.2250003E-1,-3.5263475E-2,-1.06894985E-1,2.0018917E-2,1.8101202E-1,2.1220487E-2,-1.7274685E-2,6.866511E-2,1.4185598E-1,8.2983434E-2],"categories":[],"categories_nodes":[],"categories_segments":[],"categories_sizes":[],"default_left":[1,1,1,1,1,1,1,1,1,1,1,1,1,1,1,1,1,1,1,1,1,1,1,1,1,1,1,1,1,1,1,1,1,1,1,1,1,0,0,1,1,1,1,1,1,0,1,1,1,1,1,1,1,1,1,1,1,1,1,1,1,1,1,0,0,0,0,0,0,0,0,0,0,0,0,0,0,0,0,0,0,0,0,0,0,0,0,0,0,0,0,0,0,0,0,0,0,0,0,0,0,0,0,0,0,0,0,0,0,0,0,0,0,0,0,0,0,0,0,0,0],"id":7,"left_children":[1,3,5,7,9,11,13,15,17,19,21,23,25,27,29,31,33,35,37,39,41,43,45,47,49,51,53,55,57,59,61,63,65,67,69,71,73,-1,-1,75,77,79,81,83,85,-1,87,89,91,93,95,97,99,101,103,105,107,109,111,113,115,117,119,-1,-1,-1,-1,-1,-1,-1,-1,-1,-1,-1,-1,-1,-1,-1,-1,-1,-1,-1,-1,-1,-1,-1,-1,-1,-1,-1,-1,-1,-1,-1,-1,-1,-1,-1,-1,-1,-1,-1,-1,-1,-1,-1,-1,-1,-1,-1,-1,-1,-1,-1,-1,-1,-1,-1,-1,-1,-1],"loss_changes":[1.3704324E1,3.4064922E0,4.8036265E0,8.3584595E-1,2.6596916E0,2.2473495E0,5.6061506E0,7.230034E-1,3.0350256E-1,4.22452E0,9.680586E-1,8.995552E-1,2.1811607E0,8.673771E0,8.242906E0,1.0949993E-1,1.1016569E0,8.6063385E-2,1.3414037E-1,4.2868543E-1,1.9073657E0,6.705191E-1,4.870453E-1,4.643321E-1,5.35645E-1,7.234869E-1,1.8675115E0,2.3738384E0,7.450047E0,4.8946257E0,2.287857E0,6.629896E-2,2.9130936E-2,1.7082882E-1,1.0620058E0,2.5456905E-2,2.852285E-2,0E0,0E0,2.6283324E-1,1.5427518E-1,1.875628E0,5.082053E-1,3.043173E-1,4.0404296E-1,0E0,2.840457E-1,6.8467593E-1,2.935958E-1,2.6807535E-1,3.073436E-1,6.0506642E-2,6.3897896E-1,6.96507E-1,7.842179E-1,7.5716686E-1,8.218688E-1,7.4227543E0,7.764688E0,2.1681452E0,1.5075033E0,1.7303277E0,4.8155403E-1,0E0,0E0,0E0,0E0,0E0,0E0,0E0,0E0,0E0,0E0,0E0,0E0,0E0,0E0,0E0,0E0,0E0,0E0,0E0,0E0,0E0,0E0,0E0,0E0,0E0,0E0,0E0,0E0,0E0,0E0,0E0,0E0,0E0,0E0,0E0,0E0,0E0,0E0,0E0,0E0,0E0,0E0,0E0,0E0,0E0,0E0,0E0,0E0,0E0,0E0,0E0,0E0,0E0,0E0,0E0,0E0,0E0,0E0],"parents":[2147483647,0,0,1,1,2,2,3,3,4,4,5,5,6,6,7,7,8,8,9,9,10,10,11,11,12,12,13,13,14,14,15,15,16,16,17,17,18,18,19,19,20,20,21,21,22,22,23,23,24,24,25,25,26,26,27,27,28,28,29,29,30,30,31,31,32,32,33,33,34,34,35,35,36,36,39,39,40,40,41,41,42,42,43,43,44,44,46,46,47,47,48,48,49,49,50,50,51,51,52,52,53,53,54,54,55,55,56,56,57,57,58,58,59,59,60,60,61,61,62,62],"right_children":[2,4,6,8,10,12,14,16,18,20,22,24,26,28,30,32,34,36,38,40,42,44,46,48,50,52,54,56,58,60,62,64,66,68,70,72,74,-1,-1,76,78,80,82,84,86,-1,88,90,92,94,96,98,100,102,104,106,108,110,112,114,116,118,120,-1,-1,-1,-1,-1,-1,-1,-1,-1,-1,-1,-1,-1,-1,-1,-1,-1,-1,-1,-1,-1,-1,-1,-1,-1,-1,-1,-1,-1,-1,-1,-1,-1,-1,-1,-1,-1,-1,-1,-1,-1,-1,-1,-1,-1,-1,-1,-1,-1,-1,-1,-1,-1,-1,-1,-1,-1,-1],"split_conditions":[8.0360436E-1,9.6778387E-1,9.320532E-1,5.972087E-1,7.228675E-1,6.3646674E-2,8.9101446E-1,4.7029603E-1,8.4008586E-1,2.2683768E-1,6.967558E-1,8.9911604E-1,1.1931174E-1,4.6836305E-1,2.0505596E-2,9.377525E-1,3.219766E-1,5.070496E-2,2.838082E-9,2.9402462E-1,8.824126E-1,5.522509E-2,-1.94682E-8,5.6359345E-1,3.371162E-9,5.0653166E-1,5.770618E-1,6.9781383E-3,9.196147E-1,1.5758708E-1,9.83327E-2,9.123701E-1,7.0563185E-1,9.367451E-2,5.487898E-1,1.0771477E-1,2.6043427E-8,5.95658E-2,1.5720324E-1,3.5368913E-1,4.5987767E-1,1.3212189E-1,2.1502271E-1,1.8642424E-1,9.9015534E-1,1.08075336E-1,2.1487238E-1,3.1260437E-1,7.418208E-1,9.1963065E-1,-8.174689E-9,4.1098547E-1,8.7586695E-1,1.4804597E-1,9.685149E-1,2.7089093E-2,8.531308E-1,6.034376E-1,5.738628E-1,3.242465E-1,4.5666128E-1,9.215832E-1,4.7352728E-1,3.258513E-2,4.3656547E-2,4.2191304E-2,5.4669533E-2,4.1680485E-2,3.1296086E-2,9.088323E-3,2.902093E-2,3.8178235E-2,6.1283093E-2,4.026838E-2,2.4632814E-3,4.7433585E-2,-1.8853107E-2,-4.6406455E-2,-1.6379634E-2,1.26784425E-2,6.582995E-2,1.9039873E-2,-4.07208E-2,-3.725444E-2,1.8682657E-2,1.7987106E-2,5.1709536E-2,2.7630629E-2,4.560144E-2,-3.7935127E-2,5.929473E-2,3.389441E-2,5.47609E-2,-1.0177533E-3,2.0089623E-2,4.335088E-3,4.378002E-2,1.871237E-2,4.6926167E-2,-2.6828218E-2,-2.0406481E-3,1.9823274E-2,6.2971555E-2,1.9013403E-2,-3.9782372E-4,6.8638115E-3,-6.382538E-2,-5.2048497E-2,-1.3075371E-2,-3.0978171E-2,1.9892635E-2,6.675001E-2,-1.0579043E-2,-3.20685E-2,6.005675E-3,5.430361E-2,6.3661463E-3,-5.182406E-3,2.0599533E-2,4.2556796E-2,2.4895031E-2],"split_indices":[61,94,96,58,92,83,98,94,60,52,45,61,85,91,83,97,91,56,12,51,95,87,20,90,23,92,91,85,60,73,87,65,60,91,90,87,26,0,0,91,91,85,77,49,98,0,54,50,98,93,19,59,96,85,33,83,98,90,90,47,58,98,58,0,0,0,0,0,0,0,0,0,0,0,0,0,0,0,0,0,0,0,0,0,0,0,0,0,0,0,0,0,0,0,0,0,0,0,0,0,0,0,0,0,0,0,0,0,0,0,0,0,0,0,0,0,0,0,0,0,0],"split_type":[0,0,0,0,0,0,0,0,0,0,0,0,0,0,0,0,0,0,0,0,0,0,0,0,0,0,0,0,0,0,0,0,0,0,0,0,0,0,0,0,0,0,0,0,0,0,0,0,0,0,0,0,0,0,0,0,0,0,0,0,0,0,0,0,0,0,0,0,0,0,0,0,0,0,0,0,0,0,0,0,0,0,0,0,0,0,0,0,0,0,0,0,0,0,0,0,0,0,0,0,0,0,0,0,0,0,0,0,0,0,0,0,0,0,0,0,0,0,0,0,0],"sum_hessian":[1.1203E4,4.226E3,6.977E3,2.27E3,1.956E3,1.905E3,5.072E3,2.146E3,1.24E2,1.117E3,8.39E2,6.04E2,1.301E3,2.329E3,2.743E3,5.08E2,1.638E3,1.16E2,8E0,2.13E2,9.04E2,4.99E2,3.4E2,2.84E2,3.2E2,4.07E2,8.94E2,6.17E2,1.712E3,1.187E3,1.556E3,3.33E2,1.75E2,6.74E2,9.64E2,6.3E1,5.3E1,5E0,3E0,6E1,1.53E2,8.19E2,8.5E1,3.9E1,4.6E2,8E0,3.32E2,2.5E1,2.59E2,2.16E2,1.04E2,3.1E1,3.76E2,1.43E2,7.51E2,3.62E2,2.55E2,1.246E3,4.66E2,8.88E2,2.99E2,9.84E2,5.72E2,2.58E2,7.5E1,1.38E2,3.7E1,2.36E2,4.38E2,4.79E2,4.85E2,1.2E1,5.1E1,5.1E1,2E0,5E0,5.5E1,1.34E2,1.9E1,7.55E2,6.4E1,1.5E1,7E1,2.7E1,1.2E1,4.26E2,3.4E1,1.76E2,1.56E2,1.5E1,1E1,1.28E2,1.31E2,1.14E2,1.02E2,2.3E1,8.1E1,1.8E1,1.3E1,2.02E2,1.74E2,5.7E1,8.6E1,3.52E2,3.99E2,1.4E1,3.48E2,6.5E1,1.9E2,8.82E2,3.64E2,2.34E2,2.32E2,7.23E2,1.65E2,8E1,2.19E2,3.83E2,6.01E2,3.07E2,2.65E2],"tree_param":{"num_deleted":"0","num_feature":"99","num_nodes":"121","size_leaf_vector":"0"}},{"base_weights":[2.06474E-2,6.5724984E-2,6.550316E-3,7.4861005E-2,3.0227974E-2,1.5390548E-3,9.96459E-2,-3.9984442E-2,7.8050435E-2,4.218745E-2,-3.1101225E-2,3.917034E-2,-1.0959587E-2,9.280006E-2,2.629168E-1,-1.05379604E-1,6.411166E-2,1.0630081E-1,7.0246935E-2,3.5782307E-2,1.2946546E-1,4.594022E-2,-8.828421E-2,-3.8213998E-3,6.5600775E-2,3.860615E-2,-2.0096619E-2,4.233519E-2,1.0702299E-1,3.2174465E-1,-8.709878E-3,-1.2119208E-1,5.141826E-2,9.0307064E-2,-4.8253216E-2,9.242698E-2,1.439645E-1,6.656277E-2,1.3603882E-1,1.8965123E-2,5.458694E-2,-1.29269315E-2,1.573458E-1,1.1250854E-3,8.8458344E-2,7.8414366E-2,-1.0380939E-1,-1.1414532E-2,2.5486392E-1,4.1206557E-2,1.319088E-1,8.649274E-2,2.186245E-2,1.2888598E-1,-2.3292089E-2,9.513467E-2,-3.046849E-4,7.484227E-2,1.3387196E-1,1.4252107E-1,3.7918198E-1,1.05550885E-2,-1.8649897E-2,-9.420631E-2,-1.6659942E-1,1.3749674E-2,5.939123E-2,6.026268E-3,1.05733074E-1,1.9277202E-2,-9.969923E-2,1.0479853E-1,6.828389E-2,1.1371912E-1,1.8282384E-1,8.7028235E-2,5.5798095E-2,7.2184436E-2,1.4455523E-1,4.195129E-3,8.063521E-2,-5.6399293E-2,5.945441E-2,-4.696358E-2,7.862815E-2,1.0648876E-1,2.2806822E-1,-1.1555955E-1,2.8514111E-2,-1.8477043E-2,1.0136656E-1,8.7102205E-2,2.1831512E-2,-1.5043291E-1,-5.4898426E-2,-1.9728385E-2,2.2053336E-1,1.0540365E-1,3.5022843E-1,9.33078E-2,1.0577618E-2,1.0819918E-1,3.2648352E-1,4.042368E-2,1.17985725E-1,7.1322364E-3,7.949732E-2,9.491072E-3,2.6214126E-1,-2.7815275E-2,7.570708E-2,2.6823469E-2,1.2833229E-1,3.9068926E-2,-3.1793416E-2,5.750278E-2,1.2152176E-1,2.4186088E-1,8.701368E-2,1.1038947E-1,3.9678234E-1,-5.61285E-3,-2.2361994E-2],"categories":[],"categories_nodes":[],"categories_segments":[],"categories_sizes":[],"default_left":[1,1,1,1,1,1,1,1,1,1,1,1,1,1,1,1,1,1,1,1,1,1,1,1,1,1,1,1,1,1,1,1,1,1,1,1,1,1,1,1,1,1,1,1,1,1,1,1,1,1,1,1,1,1,1,1,1,1,1,0,1,0,1,0,0,0,0,0,0,0,0,0,0,0,0,0,0,0,0,0,0,0,0,0,0,0,0,0,0,0,0,0,0,0,0,0,0,0,0,0,0,0,0,0,0,0,0,0,0,0,0,0,0,0,0,0,0,0,0,0,0,0,0],"id":8,"left_children":[1,3,5,7,9,11,13,15,17,19,21,23,25,27,29,31,33,35,37,39,41,43,45,47,49,51,53,55,57,59,61,63,65,67,69,71,73,75,77,79,81,83,85,87,89,91,93,95,97,99,101,103,105,107,109,111,113,115,117,-1,119,-1,121,-1,-1,-1,-1,-1,-1,-1,-1,-1,-1,-1,-1,-1,-1,-1,-1,-1,-1,-1,-1,-1,-1,-1,-1,-1,-1,-1,-1,-1,-1,-1,-1,-1,-1,-1,-1,-1,-1,-1,-1,-1,-1,-1,-1,-1,-1,-1,-1,-1,-1,-1,-1,-1,-1,-1,-1,-1,-1,-1,-1],"loss_changes":[7.119291E0,8.6329746E-1,3.9821148E0,7.8039074E-1,4.0325093E-1,3.8106534E0,4.6292973E-1,4.015842E-1,4.477663E-1,2.5196135E-1,4.005472E-1,2.295557E0,2.7552142E0,2.9692745E-1,2.744491E-1,9.548858E-2,7.205681E-2,2.1922445E-1,3.8385582E-1,1.3463211E-1,1.251024E-1,7.4213244E-2,1.4271748E-1,1.5153674E0,2.0180974E0,7.5741255E-1,2.4480956E0,2.116571E-1,2.7251482E-1,9.007633E-2,9.6282765E-4,2.4741888E-2,3.847126E-4,2.4065018E-2,1.9292776E-2,9.08134E-2,1.1789656E-1,3.3375168E-1,3.5789132E-2,2.0733939E-1,1.1247802E-1,2.2390028E-2,6.922829E-2,6.721265E-2,2.9479846E-2,5.5634044E-4,1.0120076E-1,1.4487083E0,2.766552E-1,1.4607713E0,1.5147414E0,3.506893E-1,5.962616E-1,1.7157922E0,2.25405E0,9.180397E-2,6.695286E-2,1.15231276E-1,8.746064E-1,0E0,3.5077333E-3,0E0,1.9669882E-5,0E0,0E0,0E0,0E0,0E0,0E0,0E0,0E0,0E0,0E0,0E0,0E0,0E0,0E0,0E0,0E0,0E0,0E0,0E0,0E0,0E0,0E0,0E0,0E0,0E0,0E0,0E0,0E0,0E0,0E0,0E0,0E0,0E0,0E0,0E0,0E0,0E0,0E0,0E0,0E0,0E0,0E0,0E0,0E0,0E0,0E0,0E0,0E0,0E0,0E0,0E0,0E0,0E0,0E0,0E0,0E0,0E0,0E0,0E0,0E0],"parents":[2147483647,0,0,1,1,2,2,3,3,4,4,5,5,6,6,7,7,8,8,9,9,10,10,11,11,12,12,13,13,14,14,15,15,16,16,17,17,18,18,19,19,20,20,21,21,22,22,23,23,24,24,25,25,26,26,27,27,28,28,29,29,30,30,31,31,32,32,33,33,34,34,35,35,36,36,37,37,38,38,39,39,40,40,41,41,42,42,43,43,44,44,45,45,46,46,47,47,48,48,49,49,50,50,51,51,52,52,53,53,54,54,55,55,56,56,57,57,58,58,60,60,62,62],"right_children":[2,4,6,8,10,12,14,16,18,20,22,24,26,28,30,32,34,36,38,40,42,44,46,48,50,52,54,56,58,60,62,64,66,68,70,72,74,76,78,80,82,84,86,88,90,92,94,96,98,100,102,104,106,108,110,112,114,116,118,-1,120,-1,122,-1,-1,-1,-1,-1,-1,-1,-1,-1,-1,-1,-1,-1,-1,-1,-1,-1,-1,-1,-1,-1,-1,-1,-1,-1,-1,-1,-1,-1,-1,-1,-1,-1,-1,-1,-1,-1,-1,-1,-1,-1,-1,-1,-1,-1,-1,-1,-1,-1,-1,-1,-1,-1,-1,-1,-1,-1,-1,-1,-1],"split_conditions":[8.379015E-1,5.0929976E-1,5.1667666E-1,1.8228751E-1,8.1007993E-1,-1.4667774E-8,1.6600435E-8,9.225004E-1,1.2350458E-1,7.876164E-1,1.606164E-1,9.2328644E-1,6.154833E-1,1.014466E0,1.2496182E-8,8.137436E-1,6.4053625E-9,8.254315E-9,6.168139E-1,1.0191691E0,4.586817E-1,1.1589831E-8,7.5459445E-1,8.893018E-9,4.07388E-1,4.6260405E-1,-2.138322E-8,5.435291E-1,7.9101396E-1,-2.0646304E-8,1.0676095E-8,9.134271E-1,-2.856973E-8,1.1356513E-1,-1.2931723E-8,1.6711728E-9,1.0051563E0,6.121856E-1,1.06456704E-1,6.034515E-1,6.6991284E-2,3.615886E-8,1.890806E-1,7.810465E-1,-3.6301404E-9,6.105808E-9,7.8072155E-1,4.2690057E-1,-3.5350465E-9,4.5845714E-1,4.6334197E-8,7.797385E-1,3.29512E-1,1.5824422E-1,5.3287756E-1,5.2470547E-1,-1.9549784E-8,6.182915E-1,1.0967314E0,4.2756323E-2,-2.6669086E-8,3.1665268E-3,-2.6488842E-9,-2.8261894E-2,-4.997983E-2,4.124902E-3,1.781737E-2,1.8078805E-3,3.1719923E-2,5.7831607E-3,-2.990977E-2,3.143956E-2,2.0485168E-2,3.411574E-2,5.4847155E-2,2.6108472E-2,1.673943E-2,2.1655332E-2,4.336657E-2,1.2585388E-3,2.4190566E-2,-1.6919788E-2,1.7836325E-2,-1.4089075E-2,2.3588447E-2,3.194663E-2,6.842047E-2,-3.4667864E-2,8.554234E-3,-5.543113E-3,3.0409968E-2,2.6130663E-2,6.549454E-3,-4.5129877E-2,-1.6469529E-2,-5.918516E-3,6.616001E-2,3.1621095E-2,1.05068535E-1,2.7992342E-2,3.1732856E-3,3.2459754E-2,9.794506E-2,1.2127104E-2,3.539572E-2,2.139671E-3,2.3849199E-2,2.8473218E-3,7.864238E-2,-8.344583E-3,2.2712125E-2,8.047041E-3,3.8499687E-2,1.1720679E-2,-9.538025E-3,1.7250834E-2,3.645653E-2,7.255827E-2,2.6104104E-2,3.3116844E-2,1.1903471E-1,-1.6838551E-3,-6.708598E-3],"split_indices":[62,91,59,52,98,10,18,42,73,60,53,43,93,37,29,93,12,19,58,34,58,26,63,24,89,58,21,90,63,10,1,65,4,73,3,12,41,60,87,90,81,1,74,93,22,0,61,51,26,58,3,63,52,83,58,59,11,59,65,0,1,0,0,0,0,0,0,0,0,0,0,0,0,0,0,0,0,0,0,0,0,0,0,0,0,0,0,0,0,0,0,0,0,0,0,0,0,0,0,0,0,0,0,0,0,0,0,0,0,0,0,0,0,0,0,0,0,0,0,0,0,0,0],"split_type":[0,0,0,0,0,0,0,0,0,0,0,0,0,0,0,0,0,0,0,0,0,0,0,0,0,0,0,0,0,0,0,0,0,0,0,0,0,0,0,0,0,0,0,0,0,0,0,0,0,0,0,0,0,0,0,0,0,0,0,0,0,0,0,0,0,0,0,0,0,0,0,0,0,0,0,0,0,0,0,0,0,0,0,0,0,0,0,0,0,0,0,0,0,0,0,0,0,0,0,0,0,0,0,0,0,0,0,0,0,0,0,0,0,0,0,0,0,0,0,0,0,0,0],"sum_hessian":[1.1203E4,2.668E3,8.535E3,2.121E3,5.47E2,8.1E3,4.35E2,5.7E1,2.064E3,4.58E2,8.9E1,2.019E3,6.081E3,4.19E2,1.6E1,3.5E1,2.2E1,4.44E2,1.62E3,4.28E2,3E1,3.8E1,5.1E1,7.69E2,1.25E3,9.46E2,5.135E3,9.3E1,3.26E2,1.3E1,3E0,3.2E1,3E0,1.8E1,4E0,3.27E2,1.17E2,1.536E3,8.4E1,2.27E2,2.01E2,5E0,2.5E1,1.9E1,1.9E1,4E0,4.7E1,7.48E2,2.1E1,9.15E2,3.35E2,2.44E2,7.02E2,1.07E2,5.028E3,4.1E1,5.2E1,1.5E2,1.76E2,4E0,9E0,1E0,2E0,2.2E1,1E1,1E0,2E0,3E0,1.5E1,2E0,2E0,2.14E2,1.13E2,6.8E1,4.9E1,5.27E2,1.009E3,1.1E1,7.3E1,1.84E2,4.3E1,8E0,1.93E2,4E0,1E0,1.6E1,9E0,3E0,1.6E1,2E0,1.7E1,3E0,1E0,2.3E1,2.4E1,7.23E2,2.5E1,9E0,1.2E1,3.38E2,5.77E2,3E2,3.5E1,1E2,1.44E2,5.6E2,1.42E2,5.7E1,5E1,4.809E3,2.19E2,1.4E1,2.7E1,2.3E1,2.9E1,1.11E2,3.9E1,5.2E1,1.24E2,1E0,8E0,1E0,1E0],"tree_param":{"num_deleted":"0","num_feature":"99","num_nodes":"123","size_leaf_vector":"0"}},{"base_weights":[1.4562651E-2,3.6569547E-2,-2.9880144E-3,5.3837847E-2,1.807825E-2,2.7115103E-2,-1.7636912E-2,4.4081356E-2,8.909951E-2,-1.4373848E-2,3.7189852E-2,4.234376E-3,6.4956516E-2,-1.01013E-1,-1.2100868E-2,7.7935874E-2,3.564808E-2,5.4887168E-2,1.3956206E-1,-6.453633E-2,3.29785E-2,4.6092343E-2,-6.283232E-2,2.4095474E-2,-5.4013394E-2,5.777854E-2,1.8782824E-1,-1.8109833E-1,-3.5695773E-2,2.7034009E-2,-2.4072409E-2,7.2522864E-2,1.0249564E-1,6.339591E-2,1.820342E-2,2.8652165E-2,9.315294E-2,5.2009955E-2,1.782013E-1,1.6594997E-2,-8.9267835E-2,2.115001E-2,1.19479604E-1,3.1101948E-2,7.750944E-2,7.52265E-2,-1.0388308E-1,7.924872E-2,9.653452E-3,3.8917217E-2,-1.0130806E-1,6.138308E-2,-1.1764947E-1,2.7779693E-2,2.0870562E-1,-1.629324E-1,-2.482577E-1,-5.38894E-2,9.566424E-2,7.041636E-3,1.07729755E-1,1.1435451E-1,-2.7115365E-2,9.37243E-2,6.4250745E-2,2.5030673E-2,1.03255555E-1,5.77473E-2,9.380289E-2,-1.2747972E-2,5.527743E-2,1.810708E-2,9.240581E-2,8.7846376E-2,2.973595E-1,1.09749176E-1,-4.4009887E-2,9.790393E-2,2.1330757E-1,1.1337018E-1,-6.924265E-3,5.3168923E-2,-9.664808E-2,-1.0030765E-1,2.7720038E-2,4.1675553E-2,1.8292713E-1,7.786298E-2,1.2295736E-2,5.2154317E-2,1.7640643E-1,1.1130377E-1,-4.4506714E-3,2.5103914E-2,-1.19173475E-1,1.0229778E-1,3.5113299E-3,2.2841029E-2,-5.2093357E-2,2.2236128E-1,1.8349197E-2,-1.1050555E-1,5.0107185E-2,5.814414E-2,2.1917698E-1,-2.4731308E-2,-1.4918959E-1,1.061956E-3,4.0873073E-2,2.2942568E-1,1.1875148E-1,-1.6883847E-1,-2.28553E-2,-1.0245367E-1,-1.8204601E-2,1.2321731E-1,3.4764092E-2,2.1940708E-2,-9.434617E-2,8.578525E-2,2.2130455E-1,2.731575E-2,3.0882594E-1,-6.0413163E-2,-1.2946681E-2],"categories":[],"categories_nodes":[],"categories_segments":[],"categories_sizes":[],"default_left":[1,1,1,1,1,1,1,1,1,1,1,1,1,1,1,1,1,1,1,1,1,1,1,1,1,1,1,1,1,1,1,1,1,1,1,1,1,1,1,1,1,1,1,1,1,1,1,1,1,1,1,1,1,1,1,1,0,1,1,1,1,1,1,0,0,0,0,0,0,0,0,0,0,0,0,0,0,0,0,0,0,0,0,0,0,0,0,0,0,0,0,0,0,0,0,0,0,0,0,0,0,0,0,0,0,0,0,0,0,0,0,0,0,0,0,0,0,0,0,0,0,0,0,0,0],"id":9,"left_children":[1,3,5,7,9,11,13,15,17,19,21,23,25,27,29,31,33,35,37,39,41,43,45,47,49,51,53,55,57,59,61,63,65,67,69,71,73,75,77,79,81,83,85,87,89,91,93,95,97,99,101,103,105,107,109,111,-1,113,115,117,119,121,123,-1,-1,-1,-1,-1,-1,-1,-1,-1,-1,-1,-1,-1,-1,-1,-1,-1,-1,-1,-1,-1,-1,-1,-1,-1,-1,-1,-1,-1,-1,-1,-1,-1,-1,-1,-1,-1,-1,-1,-1,-1,-1,-1,-1,-1,-1,-1,-1,-1,-1,-1,-1,-1,-1,-1,-1,-1,-1,-1,-1,-1,-1],"loss_changes":[4.3274937E0,1.5863328E0,2.7495315E0,8.802295E-1,1.490283E0,1.7669026E0,1.9346175E0,5.725136E-1,9.522414E-1,2.1185308E0,1.349251E0,1.4739903E0,6.6738296E-1,1.358814E0,1.8437486E0,4.5876503E-2,7.805891E-1,3.316306E-1,7.485118E-1,8.70296E-1,4.6711156E-1,6.517453E-1,7.105748E-1,7.5593305E-1,1.4279624E0,4.675634E-1,1.3454092E-1,1.0229254E-1,3.5169297E-1,1.4867034E0,1.2722578E0,5.220449E-2,1.5361309E-3,1.0158777E-1,1.1401645E0,1.3211201E-1,1.20168686E-1,3.9291787E-1,4.1605234E-1,2.3294523E-1,3.541429E-1,3.2596254E-1,2.6388258E-1,8.2743555E-1,1.1141798E0,8.385688E-2,1.9232893E-1,3.43539E-1,6.151651E-1,4.1095877E-1,3.0495453E-1,3.5217094E-1,4.027009E-2,2.0555472E-3,4.1718006E-2,7.47354E-2,0E0,2.1995965E-1,2.5920197E-2,1.1199024E0,4.3711424E-1,1.09179E0,1.3905146E0,0E0,0E0,0E0,0E0,0E0,0E0,0E0,0E0,0E0,0E0,0E0,0E0,0E0,0E0,0E0,0E0,0E0,0E0,0E0,0E0,0E0,0E0,0E0,0E0,0E0,0E0,0E0,0E0,0E0,0E0,0E0,0E0,0E0,0E0,0E0,0E0,0E0,0E0,0E0,0E0,0E0,0E0,0E0,0E0,0E0,0E0,0E0,0E0,0E0,0E0,0E0,0E0,0E0,0E0,0E0,0E0,0E0,0E0,0E0,0E0,0E0,0E0],"parents":[2147483647,0,0,1,1,2,2,3,3,4,4,5,5,6,6,7,7,8,8,9,9,10,10,11,11,12,12,13,13,14,14,15,15,16,16,17,17,18,18,19,19,20,20,21,21,22,22,23,23,24,24,25,25,26,26,27,27,28,28,29,29,30,30,31,31,32,32,33,33,34,34,35,35,36,36,37,37,38,38,39,39,40,40,41,41,42,42,43,43,44,44,45,45,46,46,47,47,48,48,49,49,50,50,51,51,52,52,53,53,54,54,55,55,57,57,58,58,59,59,60,60,61,61,62,62],"right_children":[2,4,6,8,10,12,14,16,18,20,22,24,26,28,30,32,34,36,38,40,42,44,46,48,50,52,54,56,58,60,62,64,66,68,70,72,74,76,78,80,82,84,86,88,90,92,94,96,98,100,102,104,106,108,110,112,-1,114,116,118,120,122,124,-1,-1,-1,-1,-1,-1,-1,-1,-1,-1,-1,-1,-1,-1,-1,-1,-1,-1,-1,-1,-1,-1,-1,-1,-1,-1,-1,-1,-1,-1,-1,-1,-1,-1,-1,-1,-1,-1,-1,-1,-1,-1,-1,-1,-1,-1,-1,-1,-1,-1,-1,-1,-1,-1,-1,-1,-1,-1,-1,-1,-1,-1],"split_conditions":[8.248998E-1,9.999249E-1,9.667872E-1,9.598713E-1,2.4440299E-1,6.108842E-1,1.6410168E-1,3.2539126E-1,8.267019E-1,1.6051444E-1,8.899206E-1,8.6696976E-1,6.0700583E-1,3.9374577E-3,-1.4673917E-8,9.964469E-1,4.243474E-1,5.904499E-1,1.0218713E0,3.6463612E-1,7.200182E-1,2.5121817E-1,4.5585907E-1,1.4765117E-1,5.598623E-1,2.3168038E-8,4.4763774E-1,9.889847E-1,6.180724E-8,6.3525915E-1,-2.1117E-8,1.8242131E-1,-8.776635E-8,4.6144032E-1,5.902525E-1,2.4852941E-8,1.5585147E-8,3.9575893E-1,6.321513E-1,2.3459408E-2,4.4150338E-1,5.580763E-2,6.0794028E-9,8.4061556E-2,6.284198E-1,2.2710878E-1,-6.571419E-9,1.0177565E0,9.253073E-1,9.276103E-2,9.885916E-1,3.5333523E-1,3.9006103E-8,2.5068141E-8,2.1617014E-10,7.9278964E-1,-7.4477315E-2,1.5378147E-1,-3.4033668E-10,3.8050885E-8,3.8034084E-8,1.036077E0,9.2091167E-1,2.8117292E-2,1.9275224E-2,7.509202E-3,3.0976668E-2,1.732419E-2,2.8140869E-2,-3.8243919E-3,1.658323E-2,5.4321242E-3,2.7721744E-2,2.6353914E-2,8.920785E-2,3.2924753E-2,-1.3202966E-2,2.937118E-2,6.399228E-2,3.4011055E-2,-2.0772796E-3,1.5950678E-2,-2.8994426E-2,-3.0092297E-2,8.316012E-3,1.2502667E-2,5.487814E-2,2.3358895E-2,3.688721E-3,1.5646296E-2,5.2921932E-2,3.3391133E-2,-1.3352014E-3,7.5311745E-3,-3.5752043E-2,3.0689336E-2,1.053399E-3,6.8523088E-3,-1.5628008E-2,6.6708386E-2,5.504759E-3,-3.3151668E-2,1.5032156E-2,1.7443243E-2,6.5753095E-2,-7.419393E-3,-4.475688E-2,3.1858683E-4,1.22619225E-2,6.882771E-2,3.5625447E-2,-5.0651543E-2,-6.8565905E-3,-3.0736102E-2,-5.461381E-3,3.6965195E-2,1.0429228E-2,6.5822126E-3,-2.8303852E-2,2.5735576E-2,6.639137E-2,8.194726E-3,9.264778E-2,-1.8123949E-2,-3.8840044E-3],"split_indices":[61,96,64,64,52,90,52,91,63,75,95,60,91,85,10,98,98,90,35,84,45,79,89,49,97,22,58,94,30,90,21,91,28,59,90,25,18,46,93,83,95,87,26,79,92,49,23,63,94,55,65,50,1,0,11,93,0,73,16,4,3,36,43,0,0,0,0,0,0,0,0,0,0,0,0,0,0,0,0,0,0,0,0,0,0,0,0,0,0,0,0,0,0,0,0,0,0,0,0,0,0,0,0,0,0,0,0,0,0,0,0,0,0,0,0,0,0,0,0,0,0,0,0,0,0],"split_type":[0,0,0,0,0,0,0,0,0,0,0,0,0,0,0,0,0,0,0,0,0,0,0,0,0,0,0,0,0,0,0,0,0,0,0,0,0,0,0,0,0,0,0,0,0,0,0,0,0,0,0,0,0,0,0,0,0,0,0,0,0,0,0,0,0,0,0,0,0,0,0,0,0,0,0,0,0,0,0,0,0,0,0,0,0,0,0,0,0,0,0,0,0,0,0,0,0,0,0,0,0,0,0,0,0,0,0,0,0,0,0,0,0,0,0,0,0,0,0,0,0,0,0,0,0],"sum_hessian":[1.1203E4,4.97E3,6.233E3,2.569E3,2.401E3,2.04E3,4.193E3,2.014E3,5.55E2,8.9E2,1.511E3,1.272E3,7.68E2,2.6E2,3.933E3,4E2,1.614E3,3.32E2,2.23E2,4.32E2,4.58E2,1.388E3,1.23E2,9.49E2,3.23E2,7.27E2,4.1E1,1.16E2,1.44E2,9.21E2,3.012E3,3.31E2,6.9E1,6.22E2,9.92E2,1.98E2,1.34E2,6.9E1,1.54E2,1.01E2,3.31E2,4.04E2,5.4E1,9.41E2,4.47E2,2.8E1,9.5E1,1.96E2,7.53E2,1.09E2,2.14E2,7.13E2,1.4E1,5E0,3.6E1,9.4E1,2.2E1,1.27E2,1.7E1,7.39E2,1.82E2,6.4E1,2.948E3,9E1,2.41E2,1E0,6.8E1,5.27E2,9.5E1,5.41E2,4.51E2,1.71E2,2.7E1,1.32E2,2E0,4.3E1,2.6E1,4.8E1,1.06E2,1.9E1,8.2E1,1.6E1,3.15E2,2E1,3.84E2,2.5E1,2.9E1,2.69E2,6.72E2,3.57E2,9E1,1.9E1,9E0,1E1,8.5E1,1.5E2,4.6E1,6.21E2,1.32E2,1E1,9.9E1,2.02E2,1.2E1,7E2,1.3E1,4E0,1E1,2E0,3E0,2.8E1,8E0,9E1,4E0,5.3E1,7.4E1,1.1E1,6E0,6.45E2,9.4E1,1.54E2,2.8E1,4.5E1,1.9E1,8.79E2,2.069E3],"tree_param":{"num_deleted":"0","num_feature":"99","num_nodes":"125","size_leaf_vector":"0"}},{"base_weights":[1.0267348E-2,-4.792579E-3,2.8384026E-2,2.5110042E-2,-1.9339617E-2,4.6221823E-2,-1.1190732E-2,5.2967805E-2,-1.0645027E-2,-3.497633E-2,1.7178588E-2,3.8008716E-2,9.7547315E-2,2.0651897E-2,-6.471056E-2,2.8414054E-2,8.365227E-2,-5.141415E-2,5.1005002E-2,3.1676475E-2,-5.3970456E-2,-6.424591E-2,5.167978E-2,7.196633E-2,3.1935245E-2,3.6803573E-2,1.6096638E-1,-9.205299E-3,3.9685037E-2,1.06696665E-1,-8.288565E-2,-5.485363E-3,5.5258695E-2,7.0406005E-2,1.6537307E-1,3.3694495E-2,-7.9511955E-2,4.108723E-2,1.4827892E-1,8.092499E-2,1.4117436E-2,-7.001357E-2,5.835211E-2,2.1754038E-1,-7.600452E-2,2.1529166E-2,1.03501596E-1,5.7757E-2,1.3546923E-1,-9.06751E-4,3.792619E-2,7.930524E-2,2.5670297E-2,1.1206061E-1,2.6651606E-1,1.7964343E-2,-8.139996E-2,2.4368314E-2,9.243866E-2,6.1702028E-2,1.6599338E-1,-1.0925033E-3,-1.2588236E-1,2.7006143E-3,-1.725611E-1,9.973946E-2,3.578841E-2,6.2490396E-2,2.023676E-1,2.2879337E-1,1.1367354E-1,1.80353E-2,1.3186744E-1,-3.0277824E-2,-1.2479428E-1,3.6319077E-2,2.4842206E-1,6.0608037E-2,1.9131565E-1,1.1485529E-1,3.408937E-2,-1.4535782E-2,4.7987297E-2,-5.011797E-2,-1.08978964E-1,-2.12213E-2,8.795601E-2,2.474928E-1,1.5233099E-2,-1.5056339E-1,-4.0420637E-2,-2.5024455E-2,3.9371315E-2,5.6277357E-2,1.8134613E-1,5.3746738E-2,1.5068759E-1,1.2150428E-1,3.8090083E-1,-2.1575663E-2,7.754643E-2,2.4614843E-2,5.3988513E-2,1.4760682E-2,6.5840274E-2,-1.5775966E-2,1.4101455E-1,3.943851E-1,1.6515966E-1,-1.1845197E-2,5.772617E-2,9.8363675E-2,-1.0114996E-1,9.345456E-3,9.5521316E-2,1.9731584E-1,7.372086E-2,1.6624695E-2,8.881539E-2,1.8426031E-1,9.530794E-2,7.212146E-2,-8.2613826E-2,-1.4163446E-1,-6.994694E-3],"categories":[],"categories_nodes":[],"categories_segments":[],"categories_sizes":[],"default_left":[1,1,1,1,1,1,1,1,1,1,1,1,1,1,1,1,1,1,1,1,1,1,1,1,1,1,1,1,1,1,1,1,1,1,1,1,1,1,1,1,1,1,1,1,1,1,1,1,1,1,1,0,1,1,1,1,1,1,1,1,1,1,1,0,0,0,0,0,0,0,0,0,0,0,0,0,0,0,0,0,0,0,0,0,0,0,0,0,0,0,0,0,0,0,0,0,0,0,0,0,0,0,0,0,0,0,0,0,0,0,0,0,0,0,0,0,0,0,0,0,0,0,0,0,0],"id":10,"left_children":[1,3,5,7,9,11,13,15,17,19,21,23,25,27,29,31,33,35,37,39,41,43,45,47,49,51,53,55,57,59,61,63,65,67,69,71,73,75,77,79,81,83,85,87,89,91,93,95,97,99,101,-1,103,105,107,109,111,113,115,117,119,121,123,-1,-1,-1,-1,-1,-1,-1,-1,-1,-1,-1,-1,-1,-1,-1,-1,-1,-1,-1,-1,-1,-1,-1,-1,-1,-1,-1,-1,-1,-1,-1,-1,-1,-1,-1,-1,-1,-1,-1,-1,-1,-1,-1,-1,-1,-1,-1,-1,-1,-1,-1,-1,-1,-1,-1,-1,-1,-1,-1,-1,-1,-1],"loss_changes":[3.0569892E0,2.6622174E0,3.590859E0,1.9956646E0,2.3515096E0,1.4742174E0,2.6956954E0,8.4597254E-1,2.209403E0,3.651621E0,3.4727345E0,6.213732E-1,1.8547425E0,5.6409526E-1,1.8468962E0,5.708842E-1,5.2960443E-1,1.2677119E0,3.3156693E-1,5.5230176E-1,4.0477815E0,1.2358708E0,1.3539863E0,4.0544438E-1,5.0510335E-1,1.1531356E-1,1.1883636E0,7.6056397E-1,4.874032E-1,1.4183587E-1,1.8778527E0,3.8068053E-1,2.995491E-1,4.3860245E-1,2.002294E-1,2.0054656E-1,8.835368E-1,3.0634207E-1,1.0914296E-1,2.6306129E-1,4.5973483E-1,1.5171089E0,6.6381353E-1,8.712381E-2,9.3310976E-1,4.5782444E-1,1.1624858E0,1.3202727E-1,2.3819649E-1,6.454253E-1,4.628551E-1,0E0,8.579947E-2,6.0554814E-1,8.93929E-1,3.3493325E-1,3.8628465E-1,5.0256926E-1,2.5243127E-1,4.0078193E-2,1.3427436E-2,1.1101305E0,6.544652E-1,0E0,0E0,0E0,0E0,0E0,0E0,0E0,0E0,0E0,0E0,0E0,0E0,0E0,0E0,0E0,0E0,0E0,0E0,0E0,0E0,0E0,0E0,0E0,0E0,0E0,0E0,0E0,0E0,0E0,0E0,0E0,0E0,0E0,0E0,0E0,0E0,0E0,0E0,0E0,0E0,0E0,0E0,0E0,0E0,0E0,0E0,0E0,0E0,0E0,0E0,0E0,0E0,0E0,0E0,0E0,0E0,0E0,0E0,0E0,0E0,0E0,0E0],"parents":[2147483647,0,0,1,1,2,2,3,3,4,4,5,5,6,6,7,7,8,8,9,9,10,10,11,11,12,12,13,13,14,14,15,15,16,16,17,17,18,18,19,19,20,20,21,21,22,22,23,23,24,24,25,25,26,26,27,27,28,28,29,29,30,30,31,31,32,32,33,33,34,34,35,35,36,36,37,37,38,38,39,39,40,40,41,41,42,42,43,43,44,44,45,45,46,46,47,47,48,48,49,49,50,50,52,52,53,53,54,54,55,55,56,56,57,57,58,58,59,59,60,60,61,61,62,62],"right_children":[2,4,6,8,10,12,14,16,18,20,22,24,26,28,30,32,34,36,38,40,42,44,46,48,50,52,54,56,58,60,62,64,66,68,70,72,74,76,78,80,82,84,86,88,90,92,94,96,98,100,102,-1,104,106,108,110,112,114,116,118,120,122,124,-1,-1,-1,-1,-1,-1,-1,-1,-1,-1,-1,-1,-1,-1,-1,-1,-1,-1,-1,-1,-1,-1,-1,-1,-1,-1,-1,-1,-1,-1,-1,-1,-1,-1,-1,-1,-1,-1,-1,-1,-1,-1,-1,-1,-1,-1,-1,-1,-1,-1,-1,-1,-1,-1,-1,-1,-1,-1,-1,-1,-1,-1],"split_conditions":[2.6164672E-1,1.3937975E-1,5.600699E-1,4.796067E-1,8.048394E-1,2.2895646E-1,9.479716E-1,6.9589436E-1,2.0095634E-1,5.869889E-1,2.6431257E-1,3.0614227E-1,5.156401E-1,6.970247E-5,9.826332E-2,1.682266E-2,1.537481E-1,4.486193E-2,1.0077112E0,4.0465605E-1,6.299062E-2,6.60228E-1,6.9063663E-1,7.914282E-1,1.0191659E0,1.7033538E-2,1.0261507E0,9.706846E-1,2.3014066E-1,9.6156204E-1,9.3793905E-1,9.5357575E-2,-2.3562281E-8,8.04218E-8,-4.585757E-9,1.2690036E-8,9.5323306E-1,1.6885027E-1,7.205133E-2,4.9725997E-1,9.3079996E-1,1.1964764E-1,1.022692E0,-4.1670045E-9,2.4535897E-1,7.4942553E-1,7.563002E-1,2.388057E-8,5.856552E-1,5.087453E-1,7.916814E-1,2.3791572E-2,2.4771693E-1,1.4967033E-1,5.304307E-1,9.414781E-1,4.6781284E-1,8.620169E-1,9.1965413E-1,1.0432419E0,9.8946893E-1,6.9212765E-2,2.0461471E-1,8.1018434E-4,-5.176833E-2,2.9921839E-2,1.0736523E-2,1.874712E-2,6.0710285E-2,6.863801E-2,3.4102064E-2,5.41059E-3,3.9560232E-2,-9.083347E-3,-3.7438285E-2,1.08957235E-2,7.452662E-2,1.8182412E-2,5.73947E-2,3.445659E-2,1.0226812E-2,-4.360735E-3,1.439619E-2,-1.5035392E-2,-3.269369E-2,-6.3663903E-3,2.6386805E-2,7.4247845E-2,4.56993E-3,-4.516902E-2,-1.21261915E-2,-7.507337E-3,1.1811395E-2,1.6883207E-2,5.440384E-2,1.6124021E-2,4.520628E-2,3.6451284E-2,1.14270255E-1,-6.4726993E-3,2.3263931E-2,7.384453E-3,1.6196555E-2,4.428205E-3,1.9752083E-2,-4.73279E-3,4.2304367E-2,1.1831553E-1,4.95479E-2,-3.553559E-3,1.7317852E-2,2.9509103E-2,-3.034499E-2,2.803637E-3,2.8656395E-2,5.9194755E-2,2.2116259E-2,4.9874084E-3,2.664462E-2,5.5278096E-2,2.8592383E-2,2.163644E-2,-2.478415E-2,-4.249034E-2,-2.0984083E-3],"split_indices":[52,55,91,58,93,81,96,45,52,93,74,46,92,66,85,56,53,49,41,93,85,97,92,63,34,92,35,33,83,93,95,49,31,28,32,17,65,53,87,58,98,79,38,31,84,97,97,22,59,59,63,0,82,85,91,61,90,94,93,39,96,76,86,0,0,0,0,0,0,0,0,0,0,0,0,0,0,0,0,0,0,0,0,0,0,0,0,0,0,0,0,0,0,0,0,0,0,0,0,0,0,0,0,0,0,0,0,0,0,0,0,0,0,0,0,0,0,0,0,0,0,0,0,0,0],"split_type":[0,0,0,0,0,0,0,0,0,0,0,0,0,0,0,0,0,0,0,0,0,0,0,0,0,0,0,0,0,0,0,0,0,0,0,0,0,0,0,0,0,0,0,0,0,0,0,0,0,0,0,0,0,0,0,0,0,0,0,0,0,0,0,0,0,0,0,0,0,0,0,0,0,0,0,0,0,0,0,0,0,0,0,0,0,0,0,0,0,0,0,0,0,0,0,0,0,0,0,0,0,0,0,0,0,0,0,0,0,0,0,0,0,0,0,0,0,0,0,0,0,0,0,0,0],"sum_hessian":[1.1203E4,6.118E3,5.085E3,2.002E3,4.116E3,3.505E3,1.58E3,1.125E3,8.77E2,2.882E3,1.234E3,3.023E3,4.82E2,9.91E2,5.89E2,6.26E2,4.99E2,5.28E2,3.49E2,6.39E2,2.243E3,3.67E2,8.67E2,4.57E2,2.566E3,2.47E2,2.35E2,3.86E2,6.05E2,5.6E1,5.33E2,2.77E2,3.49E2,4.31E2,6.8E1,1.31E2,3.97E2,3.18E2,3.1E1,1.67E2,4.72E2,1.963E3,2.8E2,1.4E1,3.53E2,5.49E2,3.18E2,3.75E2,8.2E1,3.96E2,2.17E3,5E1,1.97E2,1.62E2,7.3E1,2.81E2,1.05E2,4.7E2,1.35E2,3.3E1,2.3E1,1.84E2,3.49E2,2.65E2,1.2E1,1.05E2,2.44E2,4.08E2,2.3E1,2.9E1,3.9E1,1.14E2,1.7E1,1.91E2,2.06E2,3.12E2,6E0,1.1E1,2E1,9.6E1,7.1E1,2.56E2,2.16E2,1.301E3,6.62E2,7.6E1,2.04E2,1.2E1,2E0,1.13E2,2.4E2,1.52E2,3.97E2,1.99E2,1.19E2,3.61E2,1.4E1,7.9E1,3E0,3.14E2,8.2E1,1.188E3,9.82E2,1.56E2,4.1E1,3E1,1.32E2,3.1E1,4.2E1,1.61E2,1.2E2,1E1,9.5E1,3.89E2,8.1E1,1.9E1,1.16E2,1.3E1,2E1,1.7E1,6E0,9.7E1,8.7E1,3.08E2,4.1E1],"tree_param":{"num_deleted":"0","num_feature":"99","num_nodes":"125","size_leaf_vector":"0"}},{"base_weights":[7.2902148E-3,-4.5950753E-3,1.9104406E-2,-1.583952E-2,2.124862E-2,3.225352E-2,-1.0596981E-2,-6.291518E-2,-9.38012E-4,-2.844945E-2,4.7149274E-2,2.3423668E-2,6.292808E-2,1.32679725E-2,-4.9989037E-2,2.3112461E-2,-7.97547E-2,2.9710311E-2,-2.5519561E-2,4.256957E-2,-4.330282E-2,3.6739953E-2,1.0131675E-1,2.5817776E-2,-7.377662E-2,4.0365383E-2,1.4919418E-1,5.2363663E-3,6.868299E-2,4.6106484E-2,-7.069257E-2,2.2090337E-1,1.7554896E-3,1.5113377E-2,-9.132906E-2,4.120319E-2,-4.75531E-2,6.8186373E-3,-7.220836E-2,3.156035E-2,7.65758E-2,-4.6849594E-2,2.4529177E-1,1.07577E-2,5.1475674E-2,5.2773423E-2,1.4273678E-1,4.7312744E-2,1.8945133E-2,-1.9899811E-1,-3.7960753E-2,2.8203977E-2,1.2911154E-1,1.9094513E-1,2.3420874E-2,-2.2363653E-3,7.413977E-2,1.274864E-1,4.704333E-2,8.922078E-2,1.2092308E-2,2.660807E-2,-9.3345374E-2,2.5433478E-1,1.0317358E-1,2.7081594E-2,-6.2236812E-2,7.9488404E-2,-5.748088E-2,-7.214823E-2,-1.18065715E-1,2.6903454E-2,8.395884E-2,5.8231447E-2,-5.5189736E-2,7.134641E-2,1.6488391E-3,-3.4502745E-2,-1.0179974E-1,-3.376174E-2,3.9508045E-2,8.678822E-2,2.0410966E-2,-1.0739149E-1,-3.5078157E-2,-4.0867224E-2,2.1520512E-2,2.1939147E-3,6.656813E-2,1.5379968E-1,3.5443444E-2,1.4832513E-1,-7.994387E-2,3.887793E-2,9.540637E-2,1.1156288E-2,4.2180944E-2,3.2891057E-2,-1.00731395E-1,-3.9925765E-2,3.6277793E-2,1.6411072E-1,1.7965876E-2,2.6907635E-1,1.3716426E-1,-4.8925304E-3,2.565693E-1,4.2655233E-2,-1.7622212E-2,1.1204411E-1,3.705986E-2,1.4034365E-1,1.9702638E-2,1.7065053E-3,7.21267E-2,3.9635465E-2,1.2260932E-1,-8.470545E-2,2.5012475E-2,7.80663E-2,-1.1217675E-1,-4.2913355E-2,-1.1112213E-1],"categories":[],"categories_nodes":[],"categories_segments":[],"categories_sizes":[],"default_left":[1,1,1,1,1,1,1,1,1,1,1,1,1,1,1,1,1,1,1,1,1,1,1,1,1,1,1,1,1,1,1,1,1,1,1,1,1,1,1,1,1,1,0,1,1,1,1,1,1,0,1,1,1,1,1,1,1,1,1,1,1,1,1,0,0,0,0,0,0,0,0,0,0,0,0,0,0,0,0,0,0,0,0,0,0,0,0,0,0,0,0,0,0,0,0,0,0,0,0,0,0,0,0,0,0,0,0,0,0,0,0,0,0,0,0,0,0,0,0,0,0,0,0],"id":11,"left_children":[1,3,5,7,9,11,13,15,17,19,21,23,25,27,29,31,33,35,37,39,41,43,45,47,49,51,53,55,57,59,61,63,65,67,69,71,73,75,77,79,81,83,-1,85,87,89,91,93,95,-1,97,99,101,103,105,107,109,111,113,115,117,119,121,-1,-1,-1,-1,-1,-1,-1,-1,-1,-1,-1,-1,-1,-1,-1,-1,-1,-1,-1,-1,-1,-1,-1,-1,-1,-1,-1,-1,-1,-1,-1,-1,-1,-1,-1,-1,-1,-1,-1,-1,-1,-1,-1,-1,-1,-1,-1,-1,-1,-1,-1,-1,-1,-1,-1,-1,-1,-1,-1,-1],"loss_changes":[1.5732985E0,1.623617E0,2.1948247E0,2.7308745E0,2.1818795E0,1.053494E0,1.6223178E0,1.3577926E0,2.2292662E0,6.147239E-1,6.2440276E-1,7.060795E-1,1.6873424E0,4.7809234E-1,1.2984345E0,6.501413E-1,8.611431E-1,1.1714278E0,2.4796357E0,3.5395816E-2,5.038338E-1,3.5781002E-1,3.5237658E-1,4.3548977E-1,3.1984475E-1,7.421398E-1,9.407358E-1,4.841686E-1,1.6706061E-1,1.690348E-1,1.1838989E0,3.2797456E-2,2.2858007E-1,4.0646917E-1,3.494382E-1,6.9901085E-1,1.4135408E-1,3.2380366E-1,7.4627924E-1,4.1828327E-2,1.1994451E-2,3.3546162E-1,0E0,1.8979345E-1,4.4389248E-1,1.4161459E-1,1.3132179E-1,2.8633833E-1,4.0492493E-1,0E0,2.6126316E-1,3.3643916E-1,3.199221E-1,5.3035736E-1,3.049116E-1,5.871519E-1,1.2515277E-1,4.712385E-2,1.1473416E-1,7.957494E-2,8.466113E-2,7.372026E-1,3.852167E-1,0E0,0E0,0E0,0E0,0E0,0E0,0E0,0E0,0E0,0E0,0E0,0E0,0E0,0E0,0E0,0E0,0E0,0E0,0E0,0E0,0E0,0E0,0E0,0E0,0E0,0E0,0E0,0E0,0E0,0E0,0E0,0E0,0E0,0E0,0E0,0E0,0E0,0E0,0E0,0E0,0E0,0E0,0E0,0E0,0E0,0E0,0E0,0E0,0E0,0E0,0E0,0E0,0E0,0E0,0E0,0E0,0E0,0E0,0E0,0E0],"parents":[2147483647,0,0,1,1,2,2,3,3,4,4,5,5,6,6,7,7,8,8,9,9,10,10,11,11,12,12,13,13,14,14,15,15,16,16,17,17,18,18,19,19,20,20,21,21,22,22,23,23,24,24,25,25,26,26,27,27,28,28,29,29,30,30,31,31,32,32,33,33,34,34,35,35,36,36,37,37,38,38,39,39,40,40,41,41,43,43,44,44,45,45,46,46,47,47,48,48,50,50,51,51,52,52,53,53,54,54,55,55,56,56,57,57,58,58,59,59,60,60,61,61,62,62],"right_children":[2,4,6,8,10,12,14,16,18,20,22,24,26,28,30,32,34,36,38,40,42,44,46,48,50,52,54,56,58,60,62,64,66,68,70,72,74,76,78,80,82,84,-1,86,88,90,92,94,96,-1,98,100,102,104,106,108,110,112,114,116,118,120,122,-1,-1,-1,-1,-1,-1,-1,-1,-1,-1,-1,-1,-1,-1,-1,-1,-1,-1,-1,-1,-1,-1,-1,-1,-1,-1,-1,-1,-1,-1,-1,-1,-1,-1,-1,-1,-1,-1,-1,-1,-1,-1,-1,-1,-1,-1,-1,-1,-1,-1,-1,-1,-1,-1,-1,-1,-1,-1,-1,-1],"split_conditions":[2.501716E-1,6.5415186E-1,5.602787E-1,8.8273615E-1,3.0285108E-1,1.3332239E-1,9.5984596E-1,4.1733283E-1,4.7161448E-1,6.9751346E-1,5.85073E-1,3.1195408E-1,6.412182E-1,1.6138008E-1,2.9456645E-1,2.3333392E-1,9.2433524E-1,8.653416E-2,4.756236E-1,2.3061837E-8,2.9624718E-1,1.919993E-2,9.548708E-1,3.262397E-1,1.0127878E0,8.865179E-1,2.8466478E-9,6.450095E-1,1.0135139E0,1.5557264E-1,7.3997664E-1,4.7730923E-1,6.291185E-1,7.467065E-1,4.754638E-1,7.0484316E-1,3.396539E-1,3.7799025E-1,4.4920176E-1,-1.7639914E-8,1.02580975E-8,1.1101886E-1,7.358754E-2,8.6677253E-1,8.1213427E-1,3.8844448E-1,2.0104343E-1,1.0320503E0,9.868335E-2,-5.9699435E-2,6.731533E-1,1.8447952E-4,5.516835E-1,-1.6144789E-8,1.033267E0,5.178169E-1,-5.339194E-9,2.9611975E-9,7.572863E-1,8.794894E-1,5.6148183E-1,6.9212765E-2,2.7917236E-1,7.6300435E-2,3.0952074E-2,8.124478E-3,-1.8671045E-2,2.3846522E-2,-1.7244264E-2,-2.1644471E-2,-3.5419717E-2,8.071037E-3,2.5187654E-2,1.7469434E-2,-1.6556922E-2,2.1403924E-2,4.9465173E-4,-1.0350823E-2,-3.0539924E-2,-1.0128522E-2,1.1852414E-2,2.6036467E-2,6.12329E-3,-3.221745E-2,-1.0523448E-2,-1.2260168E-2,6.456154E-3,6.5817445E-4,1.997044E-2,4.6139907E-2,1.0633034E-2,4.4497542E-2,-2.3983164E-2,1.1663379E-2,2.8621912E-2,3.3468865E-3,1.2654284E-2,9.867318E-3,-3.0219419E-2,-1.197773E-2,1.0883339E-2,4.9233217E-2,5.389763E-3,8.0722906E-2,4.114928E-2,-1.4677591E-3,7.697079E-2,1.2796571E-2,-5.286664E-3,3.3613235E-2,1.11179575E-2,4.2103097E-2,5.9107915E-3,5.119516E-4,2.1638012E-2,1.189064E-2,3.6782797E-2,-2.5411636E-2,7.503743E-3,2.341989E-2,-3.365303E-2,-1.2874007E-2,-3.333664E-2],"split_indices":[52,97,91,98,74,85,96,82,58,96,91,79,92,56,79,74,96,56,91,8,50,83,64,46,36,63,21,92,34,87,97,59,97,93,58,45,82,93,59,26,17,76,0,65,62,89,81,64,85,0,97,66,91,2,35,98,25,3,44,65,91,76,77,0,0,0,0,0,0,0,0,0,0,0,0,0,0,0,0,0,0,0,0,0,0,0,0,0,0,0,0,0,0,0,0,0,0,0,0,0,0,0,0,0,0,0,0,0,0,0,0,0,0,0,0,0,0,0,0,0,0,0,0],"split_type":[0,0,0,0,0,0,0,0,0,0,0,0,0,0,0,0,0,0,0,0,0,0,0,0,0,0,0,0,0,0,0,0,0,0,0,0,0,0,0,0,0,0,0,0,0,0,0,0,0,0,0,0,0,0,0,0,0,0,0,0,0,0,0,0,0,0,0,0,0,0,0,0,0,0,0,0,0,0,0,0,0,0,0,0,0,0,0,0,0,0,0,0,0,0,0,0,0,0,0,0,0,0,0,0,0,0,0,0,0,0,0,0,0,0,0,0,0,0,0,0,0,0,0],"sum_hessian":[1.1203E4,5.585E3,5.618E3,3.892E3,1.693E3,3.894E3,1.724E3,9.35E2,2.957E3,5.8E2,1.113E3,3.025E3,8.69E2,1.074E3,6.5E2,1.53E2,7.82E2,1.316E3,1.641E3,1E2,4.8E2,9.35E2,1.78E2,2.953E3,7.2E1,6.9E2,1.79E2,9.39E2,1.35E2,1.15E2,5.35E2,1.4E1,1.39E2,8.5E1,6.97E2,1.146E3,1.7E2,9.7E2,6.71E2,7.7E1,2.3E1,4.75E2,5E0,3.39E2,5.96E2,8.3E1,9.5E1,7.14E2,2.239E3,1.5E1,5.7E1,6.08E2,8.2E1,1.34E2,4.5E1,8.48E2,9.1E1,3.5E1,1E2,5E1,6.5E1,1.01E2,4.34E2,1E1,4E0,1E2,3.9E1,4.5E1,4E1,4.08E2,2.89E2,8.6E2,2.86E2,1.1E1,1.59E2,7.1E1,8.99E2,2.96E2,3.75E2,8E0,6.9E1,1.9E1,4E0,7.6E1,3.99E2,5.8E1,2.81E2,1.4E2,4.56E2,1.1E1,7.2E1,9.3E1,2E0,6.09E2,1.05E2,1.678E3,5.61E2,2.7E1,3E1,6.4E1,5.44E2,6.2E1,2E1,5.3E1,8.1E1,4.1E1,4E0,2.16E2,6.32E2,4.4E1,4.7E1,3.1E1,4E0,3.6E1,6.4E1,2.1E1,2.9E1,7E0,5.8E1,7.4E1,2.7E1,1.14E2,3.2E2],"tree_param":{"num_deleted":"0","num_feature":"99","num_nodes":"123","size_leaf_vector":"0"}},{"base_weights":[5.1515335E-3,4.0631872E-4,2.4045706E-2,-5.3469744E-3,1.8755851E-2,-1.7744629E-2,3.0611446E-2,-9.963536E-3,2.46032E-2,-4.084678E-3,4.172877E-2,1.2943608E-2,-6.742857E-2,4.318422E-2,1.0141497E-2,2.181575E-3,-2.3204926E-2,2.8751167E-2,-7.4155554E-2,1.4831547E-2,-7.1236E-2,2.5386875E-3,5.209277E-2,-1.9586673E-2,5.5116218E-2,-5.8377285E-2,-1.834551E-1,2.2532454E-2,8.1261046E-2,1.15040965E-1,3.991683E-3,2.6990961E-2,-2.1191867E-2,2.245629E-3,-3.7616402E-2,2.5735866E-2,1.4449273E-1,4.6294417E-2,-1.5838483E-1,-3.28772E-2,2.41211E-2,1.0061023E-1,-8.0084525E-2,2.2953112E-2,-4.775126E-2,-3.2576922E-2,5.7472415E-2,-6.2947557E-3,-7.125986E-2,8.7285824E-2,3.321988E-2,-1.3939878E-1,-4.8881147E-2,-2.0297937E-2,-2.0386355E-1,1.0349753E-2,4.0753976E-2,1.0707123E-1,3.984696E-2,1.4544407E-1,3.8369372E-2,-1.0759278E-2,4.549715E-2,1.5282682E-2,1.04116715E-1,2.0111624E-2,-3.3755414E-2,-3.1078983E-2,3.5435945E-2,-5.126747E-2,-9.62928E-3,3.021132E-2,-1.259145E-2,-2.2633672E-2,1.6233705E-1,-3.0790905E-2,8.413237E-2,-1.7169654E-1,-5.5557936E-2,-7.2341956E-2,3.1035658E-2,7.258918E-2,1.7593727E-2,3.9990544E-3,1.0902951E-1,1.5255671E-2,-9.154433E-2,-1.1297557E-2,4.1001536E-2,-6.2890485E-2,5.3436212E-2,2.990487E-2,-6.1994452E-2,1.3390134E-1,5.1483378E-2,-4.319793E-2,1.0142629E-2,-2.2133393E-2,-8.829895E-2,9.614455E-2,-9.760484E-4,5.574676E-2,-4.484123E-3,-1.458242E-1,-3.7572287E-2,1.8830582E-2,-6.1051812E-2,2.3901256E-2,-2.0805787E-2,3.4241896E-2,7.2053954E-2,1.3416992E-1,4.766594E-2,5.8258902E-2,-6.4853795E-2,2.0314634E-2,1.5910074E-1,7.944776E-3,8.545977E-2,4.5255306E-3,-5.010934E-2,2.1791653E-1,4.045496E-2],"categories":[],"categories_nodes":[],"categories_segments":[],"categories_sizes":[],"default_left":[1,1,1,1,1,1,1,1,1,1,1,1,1,1,1,1,1,1,1,1,1,1,1,1,1,1,1,1,1,1,1,1,1,1,1,1,1,1,1,1,1,1,1,1,1,1,1,1,1,1,1,1,1,0,0,1,1,1,1,1,1,1,1,0,0,0,0,0,0,0,0,0,0,0,0,0,0,0,0,0,0,0,0,0,0,0,0,0,0,0,0,0,0,0,0,0,0,0,0,0,0,0,0,0,0,0,0,0,0,0,0,0,0,0,0,0,0,0,0,0,0,0,0],"id":12,"left_children":[1,3,5,7,9,11,13,15,17,19,21,23,25,27,29,31,33,35,37,39,41,43,45,47,49,51,53,55,57,59,61,63,65,67,69,71,73,75,77,79,81,83,85,87,89,91,93,95,97,99,101,103,105,-1,-1,107,109,111,113,115,117,119,121,-1,-1,-1,-1,-1,-1,-1,-1,-1,-1,-1,-1,-1,-1,-1,-1,-1,-1,-1,-1,-1,-1,-1,-1,-1,-1,-1,-1,-1,-1,-1,-1,-1,-1,-1,-1,-1,-1,-1,-1,-1,-1,-1,-1,-1,-1,-1,-1,-1,-1,-1,-1,-1,-1,-1,-1,-1,-1,-1,-1],"loss_changes":[1.0045062E0,9.455873E-1,6.176337E-1,9.4308656E-1,1.1220082E0,4.6743476E-1,4.9987793E-1,9.5032525E-1,3.753214E-1,1.3640342E0,4.3284047E-1,2.6173803E-1,1.1216247E-1,9.4493866E-1,4.7756898E-1,1.7883443E0,1.0369718E0,3.0165225E-1,3.8271266E-1,3.7218875E-1,3.6691558E-1,2.3106349E-1,3.858533E-1,7.37297E-2,5.5565298E-2,7.781905E-2,2.2500277E-2,1.7317232E-1,4.4788074E-1,8.999258E-2,4.296736E-1,1.3493116E0,8.247213E-1,1.132595E0,6.891141E-1,1.4686882E-1,6.928396E-2,4.9258538E-2,2.057457E-2,3.4780103E-1,2.2081414E-1,9.324737E-3,2.4722707E-1,9.937051E-2,1.0293412E-1,9.559499E-2,3.5609055E-1,5.321162E-2,1.6461186E-2,2.5896132E-2,4.356701E-2,1.7181039E-3,8.355932E-2,0E0,0E0,1.9893333E-1,6.1330914E-2,4.121542E-1,3.1992835E-1,4.632467E-2,1.7946225E-2,3.117821E-1,1.511485E-1,0E0,0E0,0E0,0E0,0E0,0E0,0E0,0E0,0E0,0E0,0E0,0E0,0E0,0E0,0E0,0E0,0E0,0E0,0E0,0E0,0E0,0E0,0E0,0E0,0E0,0E0,0E0,0E0,0E0,0E0,0E0,0E0,0E0,0E0,0E0,0E0,0E0,0E0,0E0,0E0,0E0,0E0,0E0,0E0,0E0,0E0,0E0,0E0,0E0,0E0,0E0,0E0,0E0,0E0,0E0,0E0,0E0,0E0,0E0,0E0],"parents":[2147483647,0,0,1,1,2,2,3,3,4,4,5,5,6,6,7,7,8,8,9,9,10,10,11,11,12,12,13,13,14,14,15,15,16,16,17,17,18,18,19,19,20,20,21,21,22,22,23,23,24,24,25,25,26,26,27,27,28,28,29,29,30,30,31,31,32,32,33,33,34,34,35,35,36,36,37,37,38,38,39,39,40,40,41,41,42,42,43,43,44,44,45,45,46,46,47,47,48,48,49,49,50,50,51,51,52,52,55,55,56,56,57,57,58,58,59,59,60,60,61,61,62,62],"right_children":[2,4,6,8,10,12,14,16,18,20,22,24,26,28,30,32,34,36,38,40,42,44,46,48,50,52,54,56,58,60,62,64,66,68,70,72,74,76,78,80,82,84,86,88,90,92,94,96,98,100,102,104,106,-1,-1,108,110,112,114,116,118,120,122,-1,-1,-1,-1,-1,-1,-1,-1,-1,-1,-1,-1,-1,-1,-1,-1,-1,-1,-1,-1,-1,-1,-1,-1,-1,-1,-1,-1,-1,-1,-1,-1,-1,-1,-1,-1,-1,-1,-1,-1,-1,-1,-1,-1,-1,-1,-1,-1,-1,-1,-1,-1,-1,-1,-1,-1,-1,-1,-1,-1],"split_conditions":[4.827843E-1,6.2305284E-1,1.6026098E-1,5.1994663E-1,6.005948E-1,5.2220607E-1,9.54799E-1,3.7110043E-1,5.2863294E-1,1.2856933E-1,8.256935E-1,4.502464E-1,3.7724895E-8,7.918158E-1,8.85578E-2,6.739708E-1,4.5832324E-1,7.710331E-8,1.0276711E0,1.7663443E-1,7.8976166E-1,3.070419E-1,7.9050934E-1,9.254788E-1,-2.093724E-9,1.356397E-1,-2.0007711E-8,5.6294096E-1,9.7702885E-1,4.737087E-1,4.0684164E-1,1.2372486E-1,7.127662E-1,7.2289354E-1,9.311465E-1,9.8038936E-1,-6.6743304E-9,5.177678E-1,8.8606333E-10,1.6569021E-1,4.2972168E-1,-3.2377343E-8,2.0899439E-1,1.5825006E-1,4.7456074E-1,6.8288517E-1,-4.1861483E-8,-5.1460485E-9,9.034079E-1,9.826395E-9,9.424748E-10,1.3751102E-8,1.8603787E-1,-6.0893814E-3,-6.1159067E-2,6.6965353E-1,5.818988E-1,1.6487228E-8,8.4612906E-1,6.940694E-1,7.472806E-2,1.0131098E0,4.1359192E-1,4.5848046E-3,3.1235015E-2,6.0334876E-3,-1.0126624E-2,-9.323696E-3,1.0630784E-2,-1.5380242E-2,-2.8887843E-3,9.063397E-3,-3.777435E-3,-6.790102E-3,4.870112E-2,-9.237272E-3,2.5239713E-2,-5.1508967E-2,-1.666738E-2,-2.1702588E-2,9.310698E-3,2.1776754E-2,5.278118E-3,1.1997164E-3,3.2708853E-2,4.5767017E-3,-2.74633E-2,-3.389267E-3,1.23004615E-2,-1.8867146E-2,1.6030865E-2,8.971461E-3,-1.8598337E-2,4.0170405E-2,1.54450135E-2,-1.295938E-2,3.042789E-3,-6.6400184E-3,-2.6489684E-2,2.8843366E-2,-2.9281454E-4,1.672403E-2,-1.345237E-3,-4.374726E-2,-1.1271686E-2,5.649175E-3,-1.8315544E-2,7.170377E-3,-6.2417365E-3,1.0272569E-2,2.1616187E-2,4.025098E-2,1.4299782E-2,1.747767E-2,-1.9456139E-2,6.0943905E-3,4.7730226E-2,2.3834328E-3,2.5637932E-2,1.3576592E-3,-1.5032803E-2,6.537496E-2,1.2136489E-2],"split_indices":[59,90,86,58,97,89,63,84,89,79,62,58,10,63,55,97,58,28,37,50,60,46,63,42,18,86,0,59,94,91,47,85,96,92,98,94,20,90,5,73,58,19,55,51,59,61,26,19,65,22,1,27,73,0,0,61,97,0,93,45,87,64,92,0,0,0,0,0,0,0,0,0,0,0,0,0,0,0,0,0,0,0,0,0,0,0,0,0,0,0,0,0,0,0,0,0,0,0,0,0,0,0,0,0,0,0,0,0,0,0,0,0,0,0,0,0,0,0,0,0,0,0,0],"split_type":[0,0,0,0,0,0,0,0,0,0,0,0,0,0,0,0,0,0,0,0,0,0,0,0,0,0,0,0,0,0,0,0,0,0,0,0,0,0,0,0,0,0,0,0,0,0,0,0,0,0,0,0,0,0,0,0,0,0,0,0,0,0,0,0,0,0,0,0,0,0,0,0,0,0,0,0,0,0,0,0,0,0,0,0,0,0,0,0,0,0,0,0,0,0,0,0,0,0,0,0,0,0,0,0,0,0,0,0,0,0,0,0,0,0,0,0,0,0,0,0,0,0,0],"sum_hessian":[1.1203E4,8.955E3,2.248E3,6.818E3,2.137E3,3.05E2,1.943E3,5.908E3,9.1E2,1.072E3,1.065E3,1.89E2,1.16E2,1.203E3,7.4E2,3.082E3,2.826E3,8.74E2,3.6E1,8.37E2,2.35E2,2.23E2,8.42E2,1.07E2,8.2E1,1.09E2,7E0,7.81E2,4.22E2,4E1,7E2,1.495E3,1.587E3,1.022E3,1.804E3,8.53E2,2.1E1,1.5E1,2.1E1,1.36E2,7.01E2,1.1E1,2.24E2,1.59E2,6.4E1,5E1,7.92E2,8.6E1,2.1E1,3.2E1,5E1,1E1,9.9E1,1E0,6E0,4.69E2,3.12E2,2.59E2,1.63E2,2.8E1,1.2E1,5.17E2,1.83E2,1.299E3,1.96E2,3.7E2,1.217E3,5.1E2,5.12E2,1.212E3,5.92E2,7.64E2,8.9E1,2E0,1.9E1,5E0,1E1,1.8E1,3E0,8.4E1,5.2E1,8.2E1,6.19E2,1E0,1E1,2.4E1,2E2,5.5E1,1.04E2,5.6E1,8E0,1.6E1,3.4E1,5.6E1,7.36E2,2.6E1,6E1,6E0,1.5E1,2.9E1,3E0,3.1E1,1.9E1,9E0,1E0,1.5E1,8.4E1,3.27E2,1.42E2,2.6E2,5.2E1,1.77E2,8.2E1,1.39E2,2.4E1,3E0,2.5E1,8E0,4E0,3.73E2,1.44E2,4E0,1.79E2],"tree_param":{"num_deleted":"0","num_feature":"99","num_nodes":"123","size_leaf_vector":"0"}},{"base_weights":[3.6225491E-3,2.5991408E-2,8.9411286E-4,2.2692988E-2,7.390816E-2,1.1702461E-2,-4.405369E-3,4.0516272E-2,1.5666412E-2,9.357357E-2,2.5762089E-2,3.4887936E-2,5.2409666E-3,-1.5369678E-2,6.0209413E-3,6.349037E-2,2.8129473E-2,3.547088E-2,6.0933824E-3,1.00567296E-1,-2.07382E-2,4.1982837E-2,-4.4273328E-2,5.0689194E-2,8.284756E-3,-1.6002972E-2,1.1617943E-2,5.928785E-2,-1.9359935E-2,1.9559663E-2,-3.4554996E-2,6.9383666E-2,-2.1795519E-2,2.3241349E-2,5.924681E-2,3.2095164E-2,1.11115225E-1,1.3297333E-2,-2.7150005E-2,1.0775447E-1,2.7506521E-2,-3.4750302E-3,-3.6263853E-2,6.0704194E-2,1.7191064E-2,-5.8612686E-2,-1.5176197E-2,2.48385E-2,8.579704E-2,-1.5228112E-2,8.047911E-2,2.5049245E-2,-3.2386206E-2,5.7033007E-3,5.102678E-2,1.1233888E-1,4.3200817E-2,-2.512671E-2,3.9777867E-2,5.1382943E-3,4.259669E-2,3.2442432E-2,-4.494043E-2,5.7842705E-2,1.257226E-1,-4.712568E-2,-5.497853E-3,6.657007E-2,1.9001698E-2,1.2835531E-1,3.8642555E-2,3.690164E-2,-2.8535612E-3,1.4678928E-1,1.1988312E-2,6.953712E-3,8.094698E-2,-3.8744044E-2,7.991134E-2,6.1371222E-2,1.15695365E-1,5.5195794E-2,-1.8581351E-2,2.2402406E-3,-7.452786E-3,1.9949794E-2,6.754408E-2,2.5843665E-2,-1.1612892E-2,-6.673955E-2,2.9538807E-2,3.55038E-2,1.3571656E-1,-1.2855204E-3,-1.4273855E-1,4.3675177E-2,1.15959555E-1,-8.366235E-3,7.408301E-2,-4.653405E-2,6.779365E-2,1.49253905E-2,-1.1332694E-2,2.842112E-3,7.306133E-2,1.2079192E-1,1.0290071E-2,8.840933E-2,2.3351006E-2,-1.487049E-2,-5.6808934E-2,1.16560645E-1,1.6520234E-2,2.391388E-2,-3.3287644E-2,-1.2200163E-2,6.0780615E-2,-5.7488147E-2,7.699179E-2,2.5372833E-1,-4.6489935E-2],"categories":[],"categories_nodes":[],"categories_segments":[],"categories_sizes":[],"default_left":[1,1,1,1,1,1,1,1,1,1,1,1,1,1,1,1,1,1,1,1,1,1,1,1,1,1,1,1,1,1,1,1,1,1,1,1,1,1,1,1,1,1,0,1,1,0,0,1,1,1,1,1,1,1,1,1,1,1,1,1,1,1,1,0,0,0,0,0,0,0,0,0,0,0,0,0,0,0,0,0,0,0,0,0,0,0,0,0,0,0,0,0,0,0,0,0,0,0,0,0,0,0,0,0,0,0,0,0,0,0,0,0,0,0,0,0,0,0,0,0,0],"id":13,"left_children":[1,3,5,7,9,11,13,15,17,19,21,23,25,27,29,31,33,35,37,39,41,43,45,47,49,51,53,55,57,59,61,63,65,67,69,71,73,75,77,79,81,83,-1,85,87,-1,-1,89,91,93,95,97,99,101,103,105,107,109,111,113,115,117,119,-1,-1,-1,-1,-1,-1,-1,-1,-1,-1,-1,-1,-1,-1,-1,-1,-1,-1,-1,-1,-1,-1,-1,-1,-1,-1,-1,-1,-1,-1,-1,-1,-1,-1,-1,-1,-1,-1,-1,-1,-1,-1,-1,-1,-1,-1,-1,-1,-1,-1,-1,-1,-1,-1,-1,-1,-1,-1],"loss_changes":[6.8377936E-1,1.9082725E-1,5.7209337E-1,1.4226025E-1,7.14407E-2,4.9210206E-1,7.662469E-1,8.984733E-2,1.5524665E-1,4.605615E-2,2.9123368E-2,3.0056053E-1,3.4848467E-1,9.743961E-1,1.88823E0,5.780518E-2,3.0717283E-2,6.461322E-2,1.3303502E-1,2.4341285E-2,9.4606995E-4,8.239143E-3,1.1966536E-3,4.0536427E-1,4.5615456E-1,4.003167E-1,4.6075934E-1,1.3681686E-1,1.0588882E0,8.559261E-1,5.998435E-1,6.0999513E-2,3.0434898E-3,3.2535613E-2,3.491003E-2,4.327619E-2,3.7139088E-2,1.9512668E-1,1.2598214E-1,1.0210872E-2,8.68245E-3,8.4897896E-5,0E0,1.7188229E-3,2.7924108E-3,0E0,0E0,1.1388709E-1,4.7219837E-1,3.6071518E-1,8.11196E-2,2.7916253E-1,6.055195E-1,2.7055112E-1,2.7371812E-1,3.15367E-2,1.1369759E-1,9.177606E-1,4.9095124E-1,1.1450467E0,9.891921E-1,4.6916267E-1,3.5657406E-1,0E0,0E0,0E0,0E0,0E0,0E0,0E0,0E0,0E0,0E0,0E0,0E0,0E0,0E0,0E0,0E0,0E0,0E0,0E0,0E0,0E0,0E0,0E0,0E0,0E0,0E0,0E0,0E0,0E0,0E0,0E0,0E0,0E0,0E0,0E0,0E0,0E0,0E0,0E0,0E0,0E0,0E0,0E0,0E0,0E0,0E0,0E0,0E0,0E0,0E0,0E0,0E0,0E0,0E0,0E0,0E0,0E0,0E0],"parents":[2147483647,0,0,1,1,2,2,3,3,4,4,5,5,6,6,7,7,8,8,9,9,10,10,11,11,12,12,13,13,14,14,15,15,16,16,17,17,18,18,19,19,20,20,21,21,22,22,23,23,24,24,25,25,26,26,27,27,28,28,29,29,30,30,31,31,32,32,33,33,34,34,35,35,36,36,37,37,38,38,39,39,40,40,41,41,43,43,44,44,47,47,48,48,49,49,50,50,51,51,52,52,53,53,54,54,55,55,56,56,57,57,58,58,59,59,60,60,61,61,62,62],"right_children":[2,4,6,8,10,12,14,16,18,20,22,24,26,28,30,32,34,36,38,40,42,44,46,48,50,52,54,56,58,60,62,64,66,68,70,72,74,76,78,80,82,84,-1,86,88,-1,-1,90,92,94,96,98,100,102,104,106,108,110,112,114,116,118,120,-1,-1,-1,-1,-1,-1,-1,-1,-1,-1,-1,-1,-1,-1,-1,-1,-1,-1,-1,-1,-1,-1,-1,-1,-1,-1,-1,-1,-1,-1,-1,-1,-1,-1,-1,-1,-1,-1,-1,-1,-1,-1,-1,-1,-1,-1,-1,-1,-1,-1,-1,-1,-1,-1,-1,-1,-1,-1],"split_conditions":[3.0282235E-1,9.828994E-1,9.476229E-1,1.7055008E-1,4.2670023E-1,8.249067E-2,9.099106E-2,-1.2289691E-8,9.8823464E-1,1.003521E0,3.86406E-8,5.1157707E-1,7.0969653E-1,3.434658E-2,8.745224E-1,2.4238715E-1,8.074406E-1,8.99395E-1,9.109059E-1,3.8350558E-1,-4.052073E-8,6.380305E-10,8.07121E-9,7.9101396E-1,2.8348258E-1,7.106863E-1,7.421874E-1,1.8242374E-2,7.9530025E-1,1.3729057E-1,1.7972638E-1,5.5753654E-1,-3.5177024E-8,4.7281295E-2,9.566222E-1,9.226314E-9,9.9793303E-1,7.8539073E-1,1.8104522E-8,9.770848E-1,-3.0361833E-9,2.4647878E-8,-1.0879156E-2,-3.3162888E-9,2.5259837E-8,-1.7583806E-2,-4.5528593E-3,1.46092E-1,8.140223E-1,1.9814301E-2,1.0254865E0,5.544915E-1,4.775867E-1,5.981848E-1,8.9595485E-1,5.077439E-1,4.5246324E-1,4.924304E-1,-1.1537953E-8,2.2371498E-1,9.74471E-1,5.7842505E-1,-9.780711E-8,1.7352812E-2,3.7716784E-2,-1.4137704E-2,-1.6493559E-3,1.9971022E-2,5.7005095E-3,3.8506594E-2,1.1592767E-2,1.1070493E-2,-8.560684E-4,4.4036787E-2,3.5964937E-3,2.0861137E-3,2.4284096E-2,-1.1623213E-2,2.3973402E-2,1.8411368E-2,3.470861E-2,1.6558738E-2,-5.5744057E-3,6.720722E-4,-2.235836E-3,5.9849382E-3,2.0263225E-2,7.7531E-3,-3.4838677E-3,-2.0021867E-2,8.861642E-3,1.06511405E-2,4.0714968E-2,-3.8565614E-4,-4.2821568E-2,1.3102554E-2,3.4787867E-2,-2.5098706E-3,2.2224903E-2,-1.3960215E-2,2.0338096E-2,4.4776173E-3,-3.3998084E-3,8.526336E-4,2.1918401E-2,3.623758E-2,3.0870216E-3,2.6522798E-2,7.0053022E-3,-4.4611474E-3,-1.7042682E-2,3.4968194E-2,4.9560703E-3,7.1741645E-3,-9.9862935E-3,-3.660049E-3,1.8234186E-2,-1.7246446E-2,2.3097537E-2,7.61185E-2,-1.3946981E-2],"split_indices":[91,94,96,97,84,79,87,30,96,40,2,91,97,49,95,91,61,63,60,93,1,20,3,63,52,93,98,49,93,87,87,90,8,81,60,13,40,63,20,33,10,0,0,6,1,0,0,51,96,85,36,92,89,98,64,58,91,91,20,55,33,91,29,0,0,0,0,0,0,0,0,0,0,0,0,0,0,0,0,0,0,0,0,0,0,0,0,0,0,0,0,0,0,0,0,0,0,0,0,0,0,0,0,0,0,0,0,0,0,0,0,0,0,0,0,0,0,0,0,0,0],"split_type":[0,0,0,0,0,0,0,0,0,0,0,0,0,0,0,0,0,0,0,0,0,0,0,0,0,0,0,0,0,0,0,0,0,0,0,0,0,0,0,0,0,0,0,0,0,0,0,0,0,0,0,0,0,0,0,0,0,0,0,0,0,0,0,0,0,0,0,0,0,0,0,0,0,0,0,0,0,0,0,0,0,0,0,0,0,0,0,0,0,0,0,0,0,0,0,0,0,0,0,0,0,0,0,0,0,0,0,0,0,0,0,0,0,0,0,0,0,0,0,0,0],"sum_hessian":[1.1203E4,1.217E3,9.986E3,1.14E3,7.7E1,3.285E3,6.701E3,3.21E2,8.19E2,5.4E1,2.3E1,7.15E2,2.57E3,3.266E3,3.435E3,1.11E2,2.1E2,2.66E2,5.53E2,5.1E1,3E0,1.9E1,4E0,4.48E2,2.67E2,5.93E2,1.977E3,1.65E2,3.101E3,2.576E3,8.59E2,1.04E2,7E0,1.83E2,2.7E1,2.56E2,1E1,4.55E2,9.8E1,4.6E1,5E0,2E0,1E0,1E1,9E0,2E0,2E0,2.59E2,1.89E2,2.02E2,6.5E1,1.69E2,4.24E2,1.72E3,2.57E2,3.7E1,1.28E2,2.826E3,2.75E2,1.585E3,9.91E2,1.15E2,7.44E2,8.8E1,1.6E1,2E0,5E0,1.5E1,1.68E2,5E0,2.2E1,2.25E2,3.1E1,7E0,3E0,4.17E2,3.8E1,8.9E1,9E0,8E0,3.8E1,3E0,2E0,1E0,1E0,2E0,8E0,7E0,2E0,1.2E1,2.47E2,9.5E1,9.4E1,1.83E2,1.9E1,3.3E1,3.2E1,1.01E2,6.8E1,3.72E2,5.2E1,1.116E3,6.04E2,8.1E1,1.76E2,3.4E1,3E0,3.8E1,9E1,2.136E3,6.9E2,6.3E1,2.12E2,1.065E3,5.2E2,2.47E2,7.44E2,3.8E1,7.7E1,3E0,7.41E2],"tree_param":{"num_deleted":"0","num_feature":"99","num_nodes":"121","size_leaf_vector":"0"}},{"base_weights":[2.5837612E-3,2.0236798E-2,4.464166E-4,1.4365716E-2,4.466334E-2,1.6743422E-3,-3.1771954E-2,2.162031E-2,-9.424929E-3,3.2339897E-2,7.7599354E-2,-5.400613E-4,1.7258797E-2,7.133514E-2,-4.4249125E-2,1.4244703E-2,3.9290547E-2,-4.2987563E-2,1.5564186E-2,9.358311E-3,5.1310167E-2,1.164499E-1,5.81764E-2,2.2115244E-3,-1.7435877E-2,6.1950207E-2,1.4261364E-2,3.6676623E-2,2.2948574E-1,1.1212785E-3,-5.8648255E-2,2.0232484E-2,-2.1244876E-2,5.596683E-2,1.5480426E-2,5.5904455E-2,-5.2399125E-2,2.7898566E-3,9.1391E-2,-2.3585415E-2,2.1692857E-2,4.3727987E-2,1.18060954E-1,2.1016046E-2,1.3205492E-1,6.77951E-2,1.32375425E-2,1.8190537E-2,-2.6957472E-3,2.9067945E-2,-3.138319E-2,4.7401797E-2,1.9650592E-1,1.1921126E-2,8.082917E-2,-2.2988807E-2,5.9075728E-2,4.8276026E-2,-1.4357676E-2,-1.3800884E-2,-7.441607E-2,1.2844558E-2,4.9969826E-2,7.784332E-3,-3.993978E-2,1.06148705E-1,4.7402184E-2,-4.4565834E-3,3.733118E-2,7.508693E-2,1.3154626E-2,-2.2572616E-2,-7.9206936E-2,-1.5827203E-2,4.044048E-2,1.2966937E-1,3.4451768E-2,-7.0215017E-4,-7.252067E-2,-6.046064E-3,3.150983E-2,6.0479037E-2,2.1990081E-2,1.2615822E-1,2.6641399E-2,2.6582697E-2,2.1580458E-3,3.2108307E-2,1.3629483E-1,7.143822E-2,3.908018E-3,2.895553E-2,-5.1279543E-3,-4.814436E-3,2.8495071E-2,-5.178476E-2,-2.0454088E-4,5.8659736E-2,5.367452E-4,-4.3920048E-2,2.3771811E-2,-1.11817285E-1,5.633323E-2,2.7589568E-1,6.798966E-2,1.5153839E-2,-4.086383E-2,3.5806447E-2,1.0863502E-1,2.9600519E-3,-6.265211E-2,1.0734742E-1,-2.1642249E-3,-1.580608E-2,7.069047E-2,-7.136051E-2,-4.4070487E-3,-2.908971E-2,4.5064025E-2,-1.1411301E-1,-6.035685E-2],"categories":[],